{"learner":{"attributes":{"scikit_learn":"{\"_estimator_type\": \"classifier\"}"},"feature_names":[],"feature_types":[],"gradient_booster":{"model":{"gbtree_model_param":{"num_parallel_tree":"1","num_trees":"826"},"iteration_indptr":[0,1,2,3,4,5,6,7,8,9,10,11,12,13,14,15,16,17,18,19,20,21,22,23,24,25,26,27,28,29,30,31,32,33,34,35,36,37,38,39,40,41,42,43,44,45,46,47,48,49,50,51,52,53,54,55,56,57,58,59,60,61,62,63,64,65,66,67,68,69,70,71,72,73,74,75,76,77,78,79,80,81,82,83,84,85,86,87,88,89,90,91,92,93,94,95,96,97,98,99,100,101,102,103,104,105,106,107,108,109,110,111,112,113,114,115,116,117,118,119,120,121,122,123,124,125,126,127,128,129,130,131,132,133,134,135,136,137,138,139,140,141,142,143,144,145,146,147,148,149,150,151,152,153,154,155,156,157,158,159,160,161,162,163,164,165,166,167,168,169,170,171,172,173,174,175,176,177,178,179,180,181,182,183,184,185,186,187,188,189,190,191,192,193,194,195,196,197,198,199,200,201,202,203,204,205,206,207,208,209,210,211,212,213,214,215,216,217,218,219,220,221,222,223,224,225,226,227,228,229,230,231,232,233,234,235,236,237,238,239,240,241,242,243,244,245,246,247,248,249,250,251,252,253,254,255,256,257,258,259,260,261,262,263,264,265,266,267,268,269,270,271,272,273,274,275,276,277,278,279,280,281,282,283,284,285,286,287,288,289,290,291,292,293,294,295,296,297,298,299,300,301,302,303,304,305,306,307,308,309,310,311,312,313,314,315,316,317,318,319,320,321,322,323,324,325,326,327,328,329,330,331,332,333,334,335,336,337,338,339,340,341,342,343,344,345,346,347,348,349,350,351,352,353,354,355,356,357,358,359,360,361,362,363,364,365,366,367,368,369,370,371,372,373,374,375,376,377,378,379,380,381,382,383,384,385,386,387,388,389,390,391,392,393,394,395,396,397,398,399,400,401,402,403,404,405,406,407,408,409,410,411,412,413,414,415,416,417,418,419,420,421,422,423,424,425,426,427,428,429,430,431,432,433,434,435,436,437,438,439,440,441,442,443,444,445,446,447,448,449,450,451,452,453,454,455,456,457,458,459,460,461,462,463,464,465,466,467,468,469,470,471,472,473,474,475,476,477,478,479,480,481,482,483,484,485,486,487,488,489,490,491,492,493,494,495,496,497,498,499,500,501,502,503,504,505,506,507,508,509,510,511,512,513,514,515,516,517,518,519,520,521,522,523,524,525,526,527,528,529,530,531,532,533,534,535,536,537,538,539,540,541,542,543,544,545,546,547,548,549,550,551,552,553,554,555,556,557,558,559,560,561,562,563,564,565,566,567,568,569,570,571,572,573,574,575,576,577,578,579,580,581,582,583,584,585,586,587,588,589,590,591,592,593,594,595,596,597,598,599,600,601,602,603,604,605,606,607,608,609,610,611,612,613,614,615,616,617,618,619,620,621,622,623,624,625,626,627,628,629,630,631,632,633,634,635,636,637,638,639,640,641,642,643,644,645,646,647,648,649,650,651,652,653,654,655,656,657,658,659,660,661,662,663,664,665,666,667,668,669,670,671,672,673,674,675,676,677,678,679,680,681,682,683,684,685,686,687,688,689,690,691,692,693,694,695,696,697,698,699,700,701,702,703,704,705,706,707,708,709,710,711,712,713,714,715,716,717,718,719,720,721,722,723,724,725,726,727,728,729,730,731,732,733,734,735,736,737,738,739,740,741,742,743,744,745,746,747,748,749,750,751,752,753,754,755,756,757,758,759,760,761,762,763,764,765,766,767,768,769,770,771,772,773,774,775,776,777,778,779,780,781,782,783,784,785,786,787,788,789,790,791,792,793,794,795,796,797,798,799,800,801,802,803,804,805,806,807,808,809,810,811,812,813,814,815,816,817,818,819,820,821,822,823,824,825,826],"tree_info":[0,0,0,0,0,0,0,0,0,0,0,0,0,0,0,0,0,0,0,0,0,0,0,0,0,0,0,0,0,0,0,0,0,0,0,0,0,0,0,0,0,0,0,0,0,0,0,0,0,0,0,0,0,0,0,0,0,0,0,0,0,0,0,0,0,0,0,0,0,0,0,0,0,0,0,0,0,0,0,0,0,0,0,0,0,0,0,0,0,0,0,0,0,0,0,0,0,0,0,0,0,0,0,0,0,0,0,0,0,0,0,0,0,0,0,0,0,0,0,0,0,0,0,0,0,0,0,0,0,0,0,0,0,0,0,0,0,0,0,0,0,0,0,0,0,0,0,0,0,0,0,0,0,0,0,0,0,0,0,0,0,0,0,0,0,0,0,0,0,0,0,0,0,0,0,0,0,0,0,0,0,0,0,0,0,0,0,0,0,0,0,0,0,0,0,0,0,0,0,0,0,0,0,0,0,0,0,0,0,0,0,0,0,0,0,0,0,0,0,0,0,0,0,0,0,0,0,0,0,0,0,0,0,0,0,0,0,0,0,0,0,0,0,0,0,0,0,0,0,0,0,0,0,0,0,0,0,0,0,0,0,0,0,0,0,0,0,0,0,0,0,0,0,0,0,0,0,0,0,0,0,0,0,0,0,0,0,0,0,0,0,0,0,0,0,0,0,0,0,0,0,0,0,0,0,0,0,0,0,0,0,0,0,0,0,0,0,0,0,0,0,0,0,0,0,0,0,0,0,0,0,0,0,0,0,0,0,0,0,0,0,0,0,0,0,0,0,0,0,0,0,0,0,0,0,0,0,0,0,0,0,0,0,0,0,0,0,0,0,0,0,0,0,0,0,0,0,0,0,0,0,0,0,0,0,0,0,0,0,0,0,0,0,0,0,0,0,0,0,0,0,0,0,0,0,0,0,0,0,0,0,0,0,0,0,0,0,0,0,0,0,0,0,0,0,0,0,0,0,0,0,0,0,0,0,0,0,0,0,0,0,0,0,0,0,0,0,0,0,0,0,0,0,0,0,0,0,0,0,0,0,0,0,0,0,0,0,0,0,0,0,0,0,0,0,0,0,0,0,0,0,0,0,0,0,0,0,0,0,0,0,0,0,0,0,0,0,0,0,0,0,0,0,0,0,0,0,0,0,0,0,0,0,0,0,0,0,0,0,0,0,0,0,0,0,0,0,0,0,0,0,0,0,0,0,0,0,0,0,0,0,0,0,0,0,0,0,0,0,0,0,0,0,0,0,0,0,0,0,0,0,0,0,0,0,0,0,0,0,0,0,0,0,0,0,0,0,0,0,0,0,0,0,0,0,0,0,0,0,0,0,0,0,0,0,0,0,0,0,0,0,0,0,0,0,0,0,0,0,0,0,0,0,0,0,0,0,0,0,0,0,0,0,0,0,0,0,0,0,0,0,0,0,0,0,0,0,0,0,0,0,0,0,0,0,0,0,0,0,0,0,0,0,0,0,0,0,0,0,0,0,0,0,0,0,0,0,0,0,0,0,0,0,0,0,0,0,0,0,0,0,0,0,0,0,0,0,0,0,0,0,0,0,0,0,0,0,0,0,0,0,0,0,0,0,0,0,0,0,0,0,0,0,0,0,0,0,0,0,0,0,0,0,0,0,0,0,0,0,0,0,0,0,0,0,0,0,0,0,0,0,0,0,0,0,0,0,0,0,0,0,0,0,0,0,0,0,0,0,0,0,0,0,0,0,0,0,0,0,0,0,0,0,0,0,0,0,0,0,0,0,0,0,0,0,0,0,0,0,0,0,0,0,0,0,0,0,0,0,0,0,0,0,0,0,0,0,0,0,0,0,0,0,0,0,0,0,0,0,0,0,0,0,0,0,0],"trees":[{"base_weights":[-8.52547E-2,-8.906382E-1,7.221543E-1,1.2960373E-1,-5.855798E-2,1.1813271E0,-8.418466E-1,-5.330516E-2,1.1045095E0,-3.4169003E-2,1.3972932E0,-5.3832382E-2,3.564431E-2,-3.2464437E-2,1.6564435E0,-2.302377E-2,1.5733318E0,5.855798E-2,-0E0,-1.0986917E-2,1.7222291E0,1.7305844E0,-0E0,-0E0,1.7305844E0,-0E0,5.855798E-2],"categories":[],"categories_nodes":[],"categories_segments":[],"categories_sizes":[],"default_left":[0,0,0,0,0,0,0,0,0,0,0,0,0,0,0,0,0,0,0,0,0,0,0,0,0,0,0],"id":0,"left_children":[1,3,5,7,-1,9,11,-1,13,-1,15,-1,-1,-1,17,-1,19,-1,-1,-1,21,23,-1,-1,25,-1,-1],"loss_changes":[2.5178372E2,1.855211E2,1.3918953E2,1.6803566E2,0E0,7.673688E1,7.4742905E1,0E0,8.153494E1,0E0,5.5479645E1,0E0,0E0,0E0,1.4050674E1,0E0,3.9794586E1,0E0,0E0,0E0,1.748227E1,1.02439575E1,0E0,0E0,5.541168E0,0E0,0E0],"parents":[2147483647,0,0,1,1,2,2,3,3,5,5,6,6,8,8,10,10,14,14,16,16,20,20,21,21,24,24],"right_children":[2,4,6,8,-1,10,12,-1,14,-1,16,-1,-1,-1,18,-1,20,-1,-1,-1,22,24,-1,-1,26,-1,-1],"split_conditions":[5.627875E-1,-6.159244E-1,1.7141683E-1,2.421534E-1,-5.855798E-2,-5.0392073E-1,2.1634774E0,-5.330516E-2,-3.3184087E-1,-3.4169003E-2,-9.715385E-1,-5.3832382E-2,3.564431E-2,-3.2464437E-2,1.7685947E-1,-2.302377E-2,-4.9356017E-1,5.855798E-2,-0E0,-1.0986917E-2,5.1138395E-1,-9.823445E-1,-0E0,-0E0,-9.5153326E-1,-0E0,5.855798E-2],"split_indices":[459,427,441,90,0,10,12,0,385,0,388,0,0,0,398,0,268,0,0,0,481,484,0,0,184,0,0],"split_type":[0,0,0,0,0,0,0,0,0,0,0,0,0,0,0,0,0,0,0,0,0,0,0,0,0,0,0],"sum_hessian":[3.501904E2,1.800695E2,1.7012091E2,8.033487E1,9.973463E1,1.3530084E2,3.482007E1,2.6363766E1,5.3971104E1,8.953732E0,1.2634711E2,2.7856054E1,6.9640136E0,8.456303E0,4.5514805E1,6.466584E0,1.19880516E2,4.2778942E1,2.7358625E0,4.9742956E0,1.1490623E2,1.11672935E2,3.233292E0,2.4871478E0,1.0918578E2,1.9897182E0,1.0719607E2],"tree_param":{"num_deleted":"0","num_feature":"500","num_nodes":"27","size_leaf_vector":"1"}},{"base_weights":[4.656544E-3,-5.7029426E-2,3.2618767E-1,-7.5181764E-1,7.4669445E-1,-5.659603E-2,3.6940655E-1,-9.231572E-1,1.1206286E0,1.4149239E0,-3.8154796E-2,-5.3692482E-2,3.3546887E-2,1.3052028E0,-3.9029576E-2,-0E0,5.6904353E-2,-2.719871E-2,1.4390398E0,-1.815255E-2,1.5542088E0,-1.1869205E-2,1.6618098E0,1.7305844E0,-0E0,-0E0,5.855798E-2],"categories":[],"categories_nodes":[],"categories_segments":[],"categories_sizes":[],"default_left":[0,0,0,0,0,0,0,0,0,0,0,0,0,0,0,0,0,0,0,0,0,0,0,0,0,0,0],"id":1,"left_children":[1,-1,3,5,7,-1,9,11,13,15,-1,-1,-1,17,-1,-1,-1,-1,19,-1,21,-1,23,25,-1,-1,-1],"loss_changes":[2.218663E2,0E0,1.5842123E2,1.1011174E2,1.6056091E2,0E0,8.567666E1,7.203969E1,9.423645E1,7.2875366E0,0E0,0E0,0E0,6.0595E1,0E0,0E0,0E0,0E0,4.6463226E1,0E0,3.9713898E1,0E0,2.2040894E1,1.2151245E1,0E0,0E0,0E0],"parents":[2147483647,0,0,2,2,3,3,4,4,6,6,7,7,8,8,9,9,13,13,18,18,20,20,22,22,23,23],"right_children":[2,-1,4,6,8,-1,10,12,14,16,-1,-1,-1,18,-1,-1,-1,-1,20,-1,22,-1,24,26,-1,-1,-1],"split_conditions":[-6.01562E-1,-5.7029426E-2,-8.808445E-2,8.529689E-1,-3.659216E-1,-5.659603E-2,-6.580374E-1,2.071278E0,8.0540365E-1,8.0669846E-4,-3.8154796E-2,-5.3692482E-2,3.3546887E-2,-1.0524782E0,-3.9029576E-2,-0E0,5.6904353E-2,-2.719871E-2,-8.5822016E-1,-1.815255E-2,-7.578658E-1,-1.1869205E-2,1.1406997E0,-9.96536E-1,-0E0,-0E0,5.855798E-2],"split_indices":[368,0,158,493,386,0,388,423,436,22,0,0,0,230,0,0,0,0,156,0,139,0,122,449,0,0,0],"split_type":[0,0,0,0,0,0,0,0,0,0,0,0,0,0,0,0,0,0,0,0,0,0,0,0,0,0,0],"sum_hessian":[3.7089267E2,5.5471165E1,3.154215E2,8.339542E1,2.320261E2,4.9545727E1,3.384969E1,3.8700058E1,1.9332603E2,2.2946127E1,1.0903564E1,3.1712711E1,6.9873457E0,1.8193153E2,1.1394493E1,1.7366282E0,2.12095E1,7.4375453E0,1.7449399E2,5.9446936E0,1.685493E2,5.2013907E0,1.633479E2,1.5963492E2,3.7129924E0,2.725675E0,1.5690924E2],"tree_param":{"num_deleted":"0","num_feature":"500","num_nodes":"27","size_leaf_vector":"1"}},{"base_weights":[6.294233E-2,-5.598676E-2,3.9827994E-1,-1.1764174E0,7.694502E-1,3.15687E-2,-5.520871E-2,-9.441392E-1,1.1196724E0,-5.3071167E-2,3.1512033E-2,1.293298E0,-3.960785E-2,-3.3507105E-2,1.4407146E0,-1.4873271E-2,1.5363121E0,-5.5078794E-3,1.6199073E0,-0E0,1.6936682E0,5.855798E-2,-0E0],"categories":[],"categories_nodes":[],"categories_segments":[],"categories_sizes":[],"default_left":[0,0,0,0,0,0,0,0,0,0,0,0,0,0,0,0,0,0,0,0,0,0,0],"id":2,"left_children":[1,-1,3,5,7,-1,-1,9,11,-1,-1,13,-1,-1,15,-1,17,-1,19,-1,21,-1,-1],"loss_changes":[2.3515248E2,0E0,2.0207327E2,7.165896E1,1.7097913E2,0E0,0E0,6.8692795E1,1.00095276E2,0E0,0E0,8.059256E1,0E0,0E0,4.105081E1,0E0,3.0402832E1,0E0,2.309613E1,0E0,1.4851807E1,0E0,0E0],"parents":[2147483647,0,0,2,2,3,3,4,4,7,7,8,8,11,11,14,14,16,16,18,18,20,20],"right_children":[2,-1,4,6,8,-1,-1,10,12,-1,-1,14,-1,-1,16,-1,18,-1,20,-1,22,-1,-1],"split_conditions":[-5.0392073E-1,-5.598676E-2,-3.659216E-1,-2.4132514E0,-3.2412162E-1,3.15687E-2,-5.520871E-2,2.3830862E0,8.0540365E-1,-5.3071167E-2,3.1512033E-2,-8.641597E-1,-3.960785E-2,-3.3507105E-2,-1.0414721E0,-1.4873271E-2,-1.1703221E0,-5.5078794E-3,-1.0608561E0,-0E0,1.0935615E0,5.855798E-2,-0E0],"split_indices":[10,0,386,371,229,0,0,415,436,0,0,327,0,0,359,0,449,0,41,0,65,0,0],"split_type":[0,0,0,0,0,0,0,0,0,0,0,0,0,0,0,0,0,0,0,0,0,0,0],"sum_hessian":[3.7286118E2,5.717175E1,3.1568942E2,5.6276535E1,2.5941287E2,6.9986095E0,4.9277924E1,4.0306145E1,2.1910674E2,3.3307377E1,6.9987683E0,2.0677855E2,1.2328181E1,9.385072E0,1.9739348E2,5.669653E0,1.9172383E2,4.689189E0,1.8703464E2,3.948912E0,1.8308572E2,1.8011969E2,2.9660354E0],"tree_param":{"num_deleted":"0","num_feature":"500","num_nodes":"23","size_leaf_vector":"1"}},{"base_weights":[5.6741953E-2,-5.443458E-2,3.7757462E-1,-5.093091E-2,5.961192E-1,-4.7788214E-2,7.9447913E-1,-2.721871E-1,1.1300083E0,9.208476E-1,-5.1409356E-2,-3.3806196E-1,1.3704649E0,5.330467E-2,-9.723639E-3,-4.4307023E-2,3.431511E-2,-1.711612E-2,1.4770432E0,1.5667093E0,-5.6392425E-3,-0E0,1.6496472E0,5.8101937E-2,-0E0],"categories":[],"categories_nodes":[],"categories_segments":[],"categories_sizes":[],"default_left":[0,0,0,0,0,0,0,0,0,0,0,0,0,0,0,0,0,0,0,0,0,0,0,0,0],"id":3,"left_children":[1,-1,3,-1,5,-1,7,9,11,13,-1,15,17,-1,-1,-1,-1,-1,19,21,-1,-1,23,-1,-1],"loss_changes":[2.1858406E2,0E0,1.4656047E2,0E0,1.2961682E2,0E0,1.0444E2,1.21753815E2,8.1059906E1,3.813508E1,0E0,6.241981E1,4.2730194E1,0E0,0E0,0E0,0E0,0E0,2.9295929E1,2.3640594E1,0E0,0E0,1.6918365E1,0E0,0E0],"parents":[2147483647,0,0,2,2,4,4,6,6,7,7,8,8,9,9,11,11,12,12,18,18,19,19,22,22],"right_children":[2,-1,4,-1,6,-1,8,10,12,14,-1,16,18,-1,-1,-1,-1,-1,20,22,-1,-1,24,-1,-1],"split_conditions":[-5.0392073E-1,-5.443458E-2,-9.089891E-1,-5.093091E-2,-7.3315406E-1,-4.7788214E-2,-8.808445E-2,-9.353461E-1,-3.659216E-1,-5.3528804E-1,-5.1409356E-2,2.4987693E0,-1.0905514E0,5.330467E-2,-9.723639E-3,-4.4307023E-2,3.431511E-2,-1.711612E-2,1.0985022E0,-8.156774E-1,-5.6392425E-3,-0E0,1.1039121E0,5.8101937E-2,-0E0],"split_indices":[10,0,281,0,295,0,158,25,386,72,0,417,182,0,0,0,0,0,164,368,0,0,300,0,0],"split_type":[0,0,0,0,0,0,0,0,0,0,0,0,0,0,0,0,0,0,0,0,0,0,0,0,0],"sum_hessian":[3.721785E2,5.625497E1,3.1592352E2,2.9208393E1,2.8671515E2,2.2297157E1,2.6441797E2,5.7803707E1,2.0661427E2,2.6400242E1,3.1403465E1,2.4590733E1,1.8202354E2,2.1240688E1,5.1595535E0,1.7610636E1,6.980096E0,5.9165955E0,1.7610695E2,1.714207E2,4.68624E0,4.1692452E0,1.6725146E2,1.6404535E2,3.2061114E0],"tree_param":{"num_deleted":"0","num_feature":"500","num_nodes":"25","size_leaf_vector":"1"}},{"base_weights":[-2.504716E-2,-3.325182E-1,1.5625069E0,-7.6514053E-1,7.809312E-1,5.8272593E-2,-0E0,-1.1389499E0,1.0142395E0,1.300826E0,-3.9425544E-2,-1.5128307E0,2.7468184E-1,5.0496932E-2,-7.966384E-3,5.4766513E-2,-1.6976895E-2,-5.6824032E-2,2.1898879E-2,-3.747067E-2,4.6693288E-2],"categories":[],"categories_nodes":[],"categories_segments":[],"categories_sizes":[],"default_left":[0,0,0,0,0,0,0,0,0,0,0,0,0,0,0,0,0,0,0,0,0],"id":4,"left_children":[1,3,5,7,9,-1,-1,11,13,15,-1,17,19,-1,-1,-1,-1,-1,-1,-1,-1],"loss_changes":[1.9020088E2,1.5938019E2,1.0940048E1,1.6231812E2,1.0017992E2,0E0,0E0,1.0842258E2,3.3435055E1,4.835295E1,0E0,6.29227E1,8.6434296E1,0E0,0E0,0E0,0E0,0E0,0E0,0E0,0E0],"parents":[2147483647,0,0,1,1,2,2,3,3,4,4,7,7,8,8,9,9,11,11,12,12],"right_children":[2,4,6,8,10,-1,-1,12,14,16,-1,18,20,-1,-1,-1,-1,-1,-1,-1,-1],"split_conditions":[1.9059423E0,1.1735446E0,1.9114752E-1,1.5776005E0,4.0243074E-2,5.8272593E-2,-0E0,1.3514171E0,-2.8119305E-1,-1.06633455E-1,-3.9425544E-2,2.6191497E0,1.0573508E0,5.0496932E-2,-7.966384E-3,5.4766513E-2,-1.6976895E-2,-5.6824032E-2,2.1898879E-2,-3.747067E-2,4.6693288E-2],"split_indices":[167,413,219,283,481,0,0,31,313,168,0,447,376,0,0,0,0,0,0,0,0],"split_type":[0,0,0,0,0,0,0,0,0,0,0,0,0,0,0,0,0,0,0,0,0],"sum_hessian":[3.5061966E2,2.9777734E2,5.2842335E1,2.1941273E2,7.83646E1,5.040244E1,2.4398942E0,1.8488225E2,3.453049E1,6.4952705E1,1.3411895E1,1.5050146E2,3.4380787E1,2.9413157E1,5.1173334E0,5.88364E1,6.1163044E0,1.430259E2,7.475565E0,1.2194579E1,2.2186207E1],"tree_param":{"num_deleted":"0","num_feature":"500","num_nodes":"21","size_leaf_vector":"1"}},{"base_weights":[-0E0,-1.2782705E0,3.7050408E-1,-5.328031E-2,2.4368916E-2,-4.9727365E-2,6.8300486E-1,-8.3264804E-1,1.003661E0,-4.9226467E-2,2.6718294E-2,-3.5213117E-2,1.1620001E0,-2.913856E-2,1.2995723E0,1.4082341E0,-1.7003866E-2,-8.456866E-3,1.5033089E0,-0E0,1.5841933E0,5.5862978E-2,-0E0],"categories":[],"categories_nodes":[],"categories_segments":[],"categories_sizes":[],"default_left":[0,0,0,0,0,0,0,0,0,0,0,0,0,0,0,0,0,0,0,0,0,0,0],"id":5,"left_children":[1,3,5,-1,-1,-1,7,9,11,-1,-1,-1,13,-1,15,17,-1,-1,19,-1,21,-1,-1],"loss_changes":[1.9669922E2,6.078682E1,1.7656894E2,0E0,0E0,0E0,1.2972346E2,5.8204773E1,7.672229E1,0E0,0E0,0E0,6.2688843E1,0E0,4.1909943E1,3.1734467E1,0E0,0E0,2.180075E1,0E0,1.5978882E1,0E0,0E0],"parents":[2147483647,0,0,1,1,2,2,6,6,7,7,8,8,12,12,14,14,15,15,18,18,20,20],"right_children":[2,4,6,-1,-1,-1,8,10,12,-1,-1,-1,14,-1,16,18,-1,-1,20,-1,22,-1,-1],"split_conditions":[-2.922441E-1,2.7794578E0,-5.0392073E-1,-5.328031E-2,2.4368916E-2,-4.9727365E-2,-3.2412162E-1,2.3830862E0,-1.010328E0,-4.9226467E-2,2.6718294E-2,-3.5213117E-2,-8.3640337E-1,-2.913856E-2,8.0540365E-1,-9.089891E-1,-1.7003866E-2,-8.456866E-3,-9.152992E-1,-0E0,1.4355408E0,5.5862978E-2,-0E0],"split_indices":[386,36,10,0,0,0,229,415,385,0,0,0,179,0,436,281,0,0,228,0,442,0,0],"split_type":[0,0,0,0,0,0,0,0,0,0,0,0,0,0,0,0,0,0,0,0,0,0,0],"sum_hessian":[3.5676526E2,8.1806366E1,2.749589E2,7.458361E1,7.222757E0,3.63544E1,2.386045E2,3.7489418E1,2.0111508E2,3.0513664E1,6.9757514E0,1.0976034E1,1.9013905E2,8.557364E0,1.8158168E2,1.752684E2,6.3132777E0,5.1309443E0,1.7013747E2,4.144409E0,1.6599306E2,1.6278644E2,3.2066123E0],"tree_param":{"num_deleted":"0","num_feature":"500","num_nodes":"23","size_leaf_vector":"1"}},{"base_weights":[8.534924E-2,-5.084728E-2,3.8249984E-1,-6.3405514E-1,7.4229825E-1,6.6786546E-1,-5.1401377E-2,-4.2345792E-2,9.542588E-1,4.4242382E-2,-1.3608173E-2,1.1181111E0,-3.780685E-2,-2.5452426E-2,1.2305769E0,1.3304161E0,-1.8971695E-2,-8.370247E-3,1.4135752E0,-3.1162952E-3,1.4944279E0,5.2910537E-2,-0E0],"categories":[],"categories_nodes":[],"categories_segments":[],"categories_sizes":[],"default_left":[0,0,0,0,0,0,0,0,0,0,0,0,0,0,0,0,0,0,0,0,0,0,0],"id":6,"left_children":[1,-1,3,5,7,9,-1,-1,11,-1,-1,13,-1,-1,15,17,-1,-1,19,-1,21,-1,-1],"loss_changes":[1.950946E2,0E0,1.300195E2,1.1531587E2,1.1656917E2,3.6993587E1,0E0,0E0,8.764136E1,0E0,0E0,5.2322174E1,0E0,0E0,4.254834E1,2.9326385E1,0E0,0E0,2.5617706E1,0E0,1.9181793E1,0E0,0E0],"parents":[2147483647,0,0,2,2,3,3,4,4,5,5,8,8,11,11,14,14,15,15,18,18,20,20],"right_children":[2,-1,4,6,8,10,-1,-1,12,-1,-1,14,-1,-1,16,18,-1,-1,20,-1,22,-1,-1],"split_conditions":[-5.0392073E-1,-5.084728E-2,-8.808445E-2,-1.0722516E0,-7.015838E-1,-5.3528804E-1,-5.1401377E-2,-4.2345792E-2,7.3983705E-1,4.4242382E-2,-1.3608173E-2,-1.0270761E0,-3.780685E-2,-2.5452426E-2,1.0985022E0,-1.0905514E0,-1.8971695E-2,-8.370247E-3,-8.156774E-1,-3.1162952E-3,1.1039121E0,5.2910537E-2,-0E0],"split_indices":[10,0,158,369,386,72,0,0,219,0,0,41,0,0,164,182,0,0,368,0,300,0,0],"split_type":[0,0,0,0,0,0,0,0,0,0,0,0,0,0,0,0,0,0,0,0,0,0,0],"sum_hessian":[3.7452756E2,5.49665E1,3.1956107E2,7.79667E1,2.4159438E2,2.8045856E1,4.9920837E1,1.9739882E1,2.2185449E2,2.203797E1,6.007887E0,2.0902316E2,1.28313265E1,7.988823E0,2.0103435E2,1.9447557E2,6.55878E0,5.120327E0,1.8935524E2,4.816837E0,1.845384E2,1.8065105E2,3.8873498E0],"tree_param":{"num_deleted":"0","num_feature":"500","num_nodes":"23","size_leaf_vector":"1"}},{"base_weights":[1.0247192E-2,-5.59319E-1,6.599508E-1,-9.607166E-1,1.0782924E0,-3.898345E-2,8.778322E-1,-5.3114623E-2,1.6309835E-1,-0E0,5.0610755E-2,-3.2932352E-2,1.0679415E0,1.2264104E0,-4.14027E-2,1.2068017E0,-2.1020897E-2,-0E0,5.14589E-2,-8.81887E-3,1.3232737E0,1.4227928E0,-0E0,1.5105268E0,-0E0,-0E0,5.3388234E-2],"categories":[],"categories_nodes":[],"categories_segments":[],"categories_sizes":[],"default_left":[0,0,0,0,0,0,0,0,0,0,0,0,0,0,0,0,0,0,0,0,0,0,0,0,0,0,0],"id":7,"left_children":[1,3,5,7,9,-1,11,-1,13,-1,-1,-1,15,17,-1,19,-1,-1,-1,-1,21,23,-1,25,-1,-1,-1],"loss_changes":[1.5152533E2,1.385874E2,8.226217E1,1.190869E2,2.3443985E1,0E0,6.760181E1,0E0,1.05932175E2,0E0,0E0,0E0,4.2546844E1,1.3412476E1,0E0,2.8683807E1,0E0,0E0,0E0,0E0,1.9522003E1,1.5860718E1,0E0,9.292633E0,0E0,0E0,0E0],"parents":[2147483647,0,0,1,1,2,2,3,3,4,4,6,6,8,8,12,12,13,13,15,15,20,20,21,21,23,23],"right_children":[2,4,6,8,10,-1,12,-1,14,-1,-1,-1,16,18,-1,20,-1,-1,-1,-1,22,24,-1,26,-1,-1,-1],"split_conditions":[5.627875E-1,1.8586335E0,-8.8747966E-1,8.500092E-1,5.692805E-1,-3.898345E-2,-6.36112E-1,-5.3114623E-2,-6.498637E-1,-0E0,5.0610755E-2,-3.2932352E-2,1.4913514E0,6.86753E-1,-4.14027E-2,-4.232239E-2,-2.1020897E-2,-0E0,5.14589E-2,-8.81887E-3,8.474464E-1,8.98737E-1,-0E0,-8.6204994E-1,-0E0,-0E0,5.3388234E-2],"split_indices":[459,55,102,283,211,0,482,0,340,0,0,0,105,259,0,137,0,0,0,0,150,216,0,403,0,0,0],"split_type":[0,0,0,0,0,0,0,0,0,0,0,0,0,0,0,0,0,0,0,0,0,0,0,0,0,0,0],"sum_hessian":[3.574959E2,1.8420741E2,1.732885E2,1.5170506E2,3.2502342E1,1.48224745E1,1.5846602E2,1.0281331E2,4.8891758E1,4.296344E0,2.8206E1,1.1002354E1,1.4746367E2,3.0802217E1,1.8089539E1,1.4045673E2,7.006944E0,2.8570294E0,2.7945189E1,5.4873586E0,1.3496936E2,1.3065054E2,4.318829E0,1.2705752E2,3.5930176E0,2.6329844E0,1.2442454E2],"tree_param":{"num_deleted":"0","num_feature":"500","num_nodes":"27","size_leaf_vector":"1"}},{"base_weights":[-3.1930078E-2,-4.9269106E-2,2.2574547E-1,-4.695061E-2,4.6230286E-1,-4.448953E-2,6.649006E-1,8.357889E-1,-3.9175216E-2,-3.4659117E-2,9.8200434E-1,-2.8411273E-2,1.1100867E0,-1.9721685E-2,1.213581E0,-1.4623354E-2,1.3137124E0,4.7227424E-2,-3.535936E-3],"categories":[],"categories_nodes":[],"categories_segments":[],"categories_sizes":[],"default_left":[0,0,0,0,0,0,0,0,0,0,0,0,0,0,0,0,0,0,0],"id":8,"left_children":[1,-1,3,-1,5,-1,7,9,-1,-1,11,-1,13,-1,15,-1,17,-1,-1],"loss_changes":[1.6087401E2,0E0,1.2563912E2,0E0,1.0637548E2,0E0,8.517457E1,7.003615E1,0E0,0E0,5.7058624E1,0E0,4.0987E1,0E0,3.6578278E1,0E0,2.3799011E1,0E0,0E0],"parents":[2147483647,0,0,2,2,4,4,6,6,7,7,10,10,12,12,14,14,16,16],"right_children":[2,-1,4,-1,6,-1,8,10,-1,-1,12,-1,14,-1,16,-1,18,-1,-1],"split_conditions":[-4.689226E-1,-4.9269106E-2,-6.01562E-1,-4.695061E-2,-8.895111E-1,-4.448953E-2,7.9505897E-1,-9.701107E-1,-3.9175216E-2,-3.4659117E-2,-9.082046E-1,-2.8411273E-2,-9.852802E-1,-1.9721685E-2,-7.3315406E-1,-1.4623354E-2,1.4913514E0,4.7227424E-2,-3.535936E-3],"split_indices":[10,0,368,0,18,0,25,327,0,0,281,0,19,0,295,0,105,0,0],"split_type":[0,0,0,0,0,0,0,0,0,0,0,0,0,0,0,0,0,0,0],"sum_hessian":[3.444E2,5.732583E1,2.8707416E2,3.2565697E1,2.5450847E2,2.2172379E1,2.3233609E2,2.162664E2,1.6069681E1,1.1939223E1,2.0432718E2,9.489939E0,1.9483723E2,6.956431E0,1.8788081E2,6.3835487E0,1.8149725E2,1.7668608E2,4.811173E0],"tree_param":{"num_deleted":"0","num_feature":"500","num_nodes":"19","size_leaf_vector":"1"}},{"base_weights":[-1.6161993E-2,-4.8036013E-2,2.307084E-1,-6.684101E-1,6.3057375E-1,4.0210164E-1,-4.924859E-2,-4.110688E-2,8.513972E-1,4.335349E-2,-2.6977524E-2,-3.3050377E-2,1.0311116E0,-3.0007055E-2,1.1861719E0,1.3108345E0,-1.7937198E-2,-0E0,1.4520713E0,2.2768827E-2,-2.408336E-2,1.535713E0,-0E0,-0E0,5.3857934E-2],"categories":[],"categories_nodes":[],"categories_segments":[],"categories_sizes":[],"default_left":[0,0,0,0,0,0,0,0,0,0,0,0,0,0,0,0,0,0,0,0,0,0,0,0,0],"id":9,"left_children":[1,-1,3,5,7,9,-1,-1,11,-1,-1,-1,13,-1,15,17,-1,19,21,-1,-1,23,-1,-1,-1],"loss_changes":[1.5197762E2,0E0,1.16715126E2,9.00795E1,9.713219E1,5.8513596E1,0E0,0E0,7.241844E1,0E0,0E0,0E0,6.160759E1,0E0,4.183078E1,2.2270935E1,0E0,2.8265228E1,1.6987885E1,0E0,0E0,7.2086487E0,0E0,0E0,0E0],"parents":[2147483647,0,0,2,2,3,3,4,4,5,5,8,8,12,12,14,14,15,15,17,17,18,18,21,21],"right_children":[2,-1,4,6,8,10,-1,-1,12,-1,-1,-1,14,-1,16,18,-1,20,22,-1,-1,24,-1,-1,-1],"split_conditions":[-5.0392073E-1,-4.8036013E-2,-3.457265E-3,-1.0722516E0,-7.4691147E-1,-8.1406415E-1,-4.924859E-2,-4.110688E-2,-7.015838E-1,4.335349E-2,-2.6977524E-2,-3.3050377E-2,-6.6526866E-1,-3.0007055E-2,7.3983705E-1,-5.0022024E-1,-1.7937198E-2,-4.544516E-1,1.282502E0,2.2768827E-2,-2.408336E-2,-9.419748E-1,-0E0,-0E0,5.3857934E-2],"split_indices":[10,0,158,369,41,337,0,0,386,0,0,0,369,0,219,370,0,10,437,0,0,149,0,0,0],"split_type":[0,0,0,0,0,0,0,0,0,0,0,0,0,0,0,0,0,0,0,0,0,0,0,0,0],"sum_hessian":[3.40355E2,5.555933E1,2.847957E2,8.17655E1,2.0303017E2,3.0516201E1,5.1249302E1,1.7987223E1,1.8504294E2,2.1298021E1,9.21818E0,1.2743434E1,1.7229951E2,9.189166E0,1.6311035E2,1.5623021E2,6.8801384E0,1.4611501E1,1.4161871E2,6.8979273E0,7.7135735E0,1.3799274E2,3.6259773E0,2.3794138E0,1.3561331E2],"tree_param":{"num_deleted":"0","num_feature":"500","num_nodes":"25","size_leaf_vector":"1"}},{"base_weights":[5.9655912E-2,-4.6786215E-2,3.2233644E-1,-4.4471852E-2,5.1200634E-1,-4.2159457E-2,6.7738837E-1,8.112753E-1,-3.7313916E-2,-4.6540648E-1,9.9201024E-1,-4.096033E-2,1.75982E-2,-2.5277313E-2,1.0973364E0,-1.8824426E-2,1.1913054E0,-7.251819E-3,1.2674419E0,4.5107435E-2,-0E0],"categories":[],"categories_nodes":[],"categories_segments":[],"categories_sizes":[],"default_left":[0,0,0,0,0,0,0,0,0,0,0,0,0,0,0,0,0,0,0,0,0],"id":10,"left_children":[1,-1,3,-1,5,-1,7,9,-1,11,13,-1,-1,-1,15,-1,17,-1,19,-1,-1],"loss_changes":[1.5563298E2,0E0,1.1216821E2,0E0,9.6603226E1,0E0,7.486015E1,6.566844E1,0E0,4.0131317E1,4.9406326E1,0E0,0E0,0E0,4.0074524E1,0E0,2.5791016E1,0E0,1.8080353E1,0E0,0E0],"parents":[2147483647,0,0,2,2,4,4,6,6,7,7,9,9,10,10,14,14,16,16,18,18],"right_children":[2,-1,4,-1,6,-1,8,10,-1,12,14,-1,-1,-1,16,-1,18,-1,20,-1,-1],"split_conditions":[-5.0392073E-1,-4.6786215E-2,-9.089891E-1,-4.4471852E-2,-8.2698625E-1,-4.2159457E-2,1.0217518E0,-7.0311296E-1,-3.7313916E-2,2.7705686E0,-1.197148E0,-4.096033E-2,1.75982E-2,-2.5277313E-2,-1.0402076E0,-1.8824426E-2,-8.223235E-1,-7.251819E-3,1.2035545E0,4.5107435E-2,-0E0],"split_indices":[10,0,281,0,179,0,485,267,0,58,399,0,0,0,319,0,368,0,372,0,0],"split_type":[0,0,0,0,0,0,0,0,0,0,0,0,0,0,0,0,0,0,0,0,0],"sum_hessian":[3.6684335E2,5.2019592E1,3.1482376E2,2.8497393E1,2.8632635E2,2.0633566E1,2.6569278E2,2.511136E2,1.4579185E1,2.5879456E1,2.2523415E2,1.9167822E1,6.7116323E0,8.70501E0,2.1652914E2,7.2550683E0,2.0927408E2,5.5781903E0,2.0369588E2,1.9920824E2,4.48764E0],"tree_param":{"num_deleted":"0","num_feature":"500","num_nodes":"21","size_leaf_vector":"1"}},{"base_weights":[-0E0,-1.0039234E0,3.8395423E-1,6.325257E-1,-4.9032234E-2,-4.2495348E-2,6.299413E-1,-0E0,3.7538044E-2,-3.6713343E-2,7.9174685E-1,-3.304837E-2,9.362079E-1,-2.4245E-2,1.0526865E0,-2.0003563E-2,1.1600735E0,-1.3939891E-2,1.2564366E0,1.336684E0,-1.5943625E-3,4.7298852E-2,-0E0],"categories":[],"categories_nodes":[],"categories_segments":[],"categories_sizes":[],"default_left":[0,0,0,0,0,0,0,0,0,0,0,0,0,0,0,0,0,0,0,0,0,0,0],"id":11,"left_children":[1,3,5,7,-1,-1,9,-1,-1,-1,11,-1,13,-1,15,-1,17,-1,19,21,-1,-1,-1],"loss_changes":[1.538721E2,8.36148E1,1.18662384E2,1.2479794E1,0E0,0E0,7.5006035E1,0E0,0E0,0E0,6.4826614E1,0E0,4.6573547E1,0E0,4.0662827E1,0E0,3.3152344E1,0E0,2.0760925E1,1.2695709E1,0E0,0E0,0E0],"parents":[2147483647,0,0,1,1,2,2,3,3,6,6,10,10,12,12,14,14,16,16,18,18,19,19],"right_children":[2,4,6,8,-1,-1,10,-1,-1,-1,12,-1,14,-1,16,-1,18,-1,20,22,-1,-1,-1],"split_conditions":[-8.808445E-2,-1.7565162E0,-4.689226E-1,9.75511E-1,-4.9032234E-2,-4.2495348E-2,-9.089891E-1,-0E0,3.7538044E-2,-3.6713343E-2,-8.74788E-1,-3.304837E-2,-7.3315406E-1,-2.4245E-2,-8.2698625E-1,-2.0003563E-2,-1.0498067E0,-1.3939891E-2,1.0217518E0,7.3983705E-1,-1.5943625E-3,4.7298852E-2,-0E0],"split_indices":[158,312,10,384,0,0,281,0,0,0,319,0,295,0,179,0,369,0,485,219,0,0,0],"split_type":[0,0,0,0,0,0,0,0,0,0,0,0,0,0,0,0,0,0,0,0,0,0,0],"sum_hessian":[3.5033948E2,9.406881E1,2.5627066E2,1.6432735E1,7.763608E1,2.9361969E1,2.2690869E2,2.951409E0,1.3481326E1,1.5477421E1,2.1143127E2,1.1958685E1,1.9947258E2,8.798534E0,1.9067404E2,7.3136954E0,1.8336035E2,5.994539E0,1.7736581E2,1.7262143E2,4.7443843E0,1.6911044E2,3.510985E0],"tree_param":{"num_deleted":"0","num_feature":"500","num_nodes":"23","size_leaf_vector":"1"}},{"base_weights":[-4.1718442E-2,-5.9715617E-1,6.4394134E-1,-1.2911088E0,3.49868E-1,9.220303E-1,-3.7291177E-2,-4.9946316E-2,1.596441E-2,-3.9074905E-2,1.0064048E0,-2.4801318E-2,1.1095313E0,1.2563188E0,-1.0765791E-3,1.2845869E0,-1.7270107E-2,-0E0,4.7010858E-2,1.3910797E0,-0E0,-0E0,4.948068E-2],"categories":[],"categories_nodes":[],"categories_segments":[],"categories_sizes":[],"default_left":[0,0,0,0,0,0,0,0,0,0,0,0,0,0,0,0,0,0,0,0,0,0,0],"id":12,"left_children":[1,3,5,7,9,11,-1,-1,-1,-1,13,-1,15,17,-1,19,-1,-1,-1,21,-1,-1,-1],"loss_changes":[1.4491495E2,1.4397203E2,8.442601E1,4.5284103E1,9.9007866E1,4.946698E1,0E0,0E0,0E0,0E0,2.0637413E1,0E0,4.1571503E1,6.072899E0,0E0,1.5847275E1,0E0,0E0,0E0,6.8628693E0,0E0,0E0,0E0],"parents":[2147483647,0,0,1,1,2,2,3,3,4,4,5,5,10,10,12,12,13,13,15,15,19,19],"right_children":[2,4,6,8,10,12,-1,-1,-1,-1,14,-1,16,18,-1,20,-1,-1,-1,22,-1,-1,-1],"split_conditions":[7.089033E-1,5.6246185E-1,4.034824E-1,1.9954494E0,4.4031203E-1,-3.9492738E-1,-3.7291177E-2,-4.9946316E-2,1.596441E-2,-3.9074905E-2,1.7683463E-1,-2.4801318E-2,7.233119E-1,-4.5810276E-1,-1.0765791E-3,1.3982453E0,-1.7270107E-2,-0E0,4.7010858E-2,-6.913283E-3,-0E0,-0E0,4.948068E-2],"split_indices":[120,428,312,426,110,370,0,0,0,0,373,0,481,452,0,372,0,0,0,10,0,0,0],"split_type":[0,0,0,0,0,0,0,0,0,0,0,0,0,0,0,0,0,0,0,0,0,0,0],"sum_hessian":[3.3399808E2,1.9069968E2,1.4329839E2,1.14727425E2,7.597226E1,1.27399124E2,1.5899266E1,1.0776934E2,6.9580803E0,1.9531164E1,5.6441093E1,8.803075E0,1.18596054E2,5.1443497E1,4.997595E0,1.1130177E2,7.294279E0,2.298381E0,4.9145115E1,1.07348434E2,3.9533415E0,2.5180023E0,1.0483043E2],"tree_param":{"num_deleted":"0","num_feature":"500","num_nodes":"23","size_leaf_vector":"1"}},{"base_weights":[-0E0,-1.1208181E0,3.153948E-1,-4.761034E-2,2.1557668E-2,-4.4365935E-2,6.2807983E-1,-4.2517728E-1,9.5289975E-1,6.799837E-1,-4.2919848E-2,-2.3608107E-2,1.0818613E0,-0E0,3.813957E-2,1.1879512E0,-1.3580073E-2,-7.0293103E-3,1.2874881E0,-0E0,1.3594424E0,4.7904197E-2,-0E0],"categories":[],"categories_nodes":[],"categories_segments":[],"categories_sizes":[],"default_left":[0,0,0,0,0,0,0,0,0,0,0,0,0,0,0,0,0,0,0,0,0,0,0],"id":13,"left_children":[1,3,5,-1,-1,-1,7,9,11,13,-1,-1,15,-1,-1,17,-1,-1,19,-1,21,-1,-1],"loss_changes":[1.4305325E2,4.9610077E1,1.4917688E2,0E0,0E0,0E0,8.652084E1,6.808686E1,4.5541214E1,1.1324099E1,0E0,0E0,3.1718918E1,0E0,0E0,2.6141052E1,0E0,0E0,1.3796661E1,0E0,8.404175E0,0E0,0E0],"parents":[2147483647,0,0,1,1,2,2,6,6,7,7,8,8,9,9,12,12,15,15,18,18,20,20],"right_children":[2,4,6,-1,-1,-1,8,10,12,14,-1,-1,16,-1,-1,18,-1,-1,20,-1,22,-1,-1],"split_conditions":[-3.2412162E-1,2.5597892E0,-2.922441E-1,-4.761034E-2,2.1557668E-2,-4.4365935E-2,-8.808445E-2,-1.2807755E0,-9.8090875E-1,9.2593575E-1,-4.2919848E-2,-2.3608107E-2,8.0540365E-1,-0E0,3.813957E-2,-1.102414E0,-1.3580073E-2,-7.0293103E-3,-9.8140794E-1,-0E0,1.0666245E0,4.7904197E-2,-0E0],"split_indices":[229,66,386,0,0,0,158,168,430,74,0,0,436,0,0,369,0,0,179,0,499,0,0],"split_type":[0,0,0,0,0,0,0,0,0,0,0,0,0,0,0,0,0,0,0,0,0,0,0],"sum_hessian":[3.3520047E2,7.580163E1,2.5939883E2,6.8938805E1,6.8628225E0,3.7871655E1,2.2152718E2,4.6650948E1,1.7487624E2,1.6254528E1,3.0396418E1,8.364115E0,1.6651212E2,2.7192333E0,1.35352955E1,1.6022162E2,6.290503E0,5.5376983E0,1.5468391E2,3.7310588E0,1.5095285E2,1.4815146E2,2.8013957E0],"tree_param":{"num_deleted":"0","num_feature":"500","num_nodes":"23","size_leaf_vector":"1"}},{"base_weights":[1.6225767E-5,-4.4088047E-2,2.6300383E-1,-4.6368158E-1,7.0764333E-1,-1.1581256E0,1.0689173E0,9.183521E-1,-3.5275586E-2,1.6665202E-2,-4.860684E-2,-0E0,4.3933295E-2,-2.44968E-2,1.0606014E0,-1.1112254E-2,1.1681185E0,-2.302334E-3,1.263405E0,-0E0,1.3310586E0,-0E0,4.709116E-2],"categories":[],"categories_nodes":[],"categories_segments":[],"categories_sizes":[],"default_left":[0,0,0,0,0,0,0,0,0,0,0,0,0,0,0,0,0,0,0,0,0,0,0],"id":14,"left_children":[1,-1,3,5,7,9,11,13,-1,-1,-1,-1,-1,-1,15,-1,17,-1,19,-1,21,-1,-1],"loss_changes":[1.3196852E2,0E0,1.0632138E2,1.3291095E2,8.0777756E1,4.406904E1,6.9167213E0,4.8150345E1,0E0,0E0,0E0,0E0,0E0,0E0,2.8769165E1,0E0,2.0723831E1,0E0,1.12161255E1,0E0,8.825806E0,0E0,0E0],"parents":[2147483647,0,0,2,2,3,3,4,4,5,5,6,6,7,7,14,14,16,16,18,18,20,20],"right_children":[2,-1,4,6,8,10,12,14,-1,-1,-1,-1,-1,-1,16,-1,18,-1,20,-1,22,-1,-1],"split_conditions":[-5.0392073E-1,-4.4088047E-2,2.099358E-1,1.6960607E0,4.7725704E-1,-2.2966983E0,9.4525415E-1,-1.08392E0,-3.5275586E-2,1.6665202E-2,-4.860684E-2,-0E0,4.3933295E-2,-2.44968E-2,-8.48769E-1,-1.1112254E-2,-8.8414866E-1,-2.302334E-3,-9.8651284E-1,-0E0,-8.3315736E-1,-0E0,4.709116E-2],"split_indices":[10,0,331,167,437,145,8,330,0,0,0,0,0,0,92,0,145,0,49,0,399,0,0],"split_type":[0,0,0,0,0,0,0,0,0,0,0,0,0,0,0,0,0,0,0,0,0,0,0],"sum_hessian":[3.383143E2,5.1920208E1,2.8639407E2,1.0217001E2,1.8422408E2,7.3754074E1,2.8415936E1,1.6833832E2,1.5885746E1,6.668208E0,6.708587E1,2.2786613E0,2.6137276E1,9.121643E0,1.5921667E2,6.315082E0,1.529016E2,5.183546E0,1.4771805E2,3.4215677E0,1.4429648E2,2.9550822E0,1.413414E2],"tree_param":{"num_deleted":"0","num_feature":"500","num_nodes":"23","size_leaf_vector":"1"}},{"base_weights":[-1.6353881E-2,-6.5180755E-1,5.427003E-1,-1.0877367E0,9.257072E-1,-3.726578E-2,7.871202E-1,4.0725437E-1,-4.7840618E-2,-0E0,4.3302678E-2,9.609132E-1,-2.7173216E-2,3.7685353E-2,-0E0,-1.7529083E-2,1.1044333E0,-4.066085E-3,1.2204611E0,-0E0,1.2978199E0,-0E0,4.6377525E-2],"categories":[],"categories_nodes":[],"categories_segments":[],"categories_sizes":[],"default_left":[0,0,0,0,0,0,0,0,0,0,0,0,0,0,0,0,0,0,0,0,0,0,0],"id":15,"left_children":[1,3,5,7,9,-1,11,13,-1,-1,-1,15,-1,-1,-1,-1,17,-1,19,-1,21,-1,-1],"loss_changes":[1.3317041E2,1.2517632E2,8.032083E1,7.249873E1,1.5686157E1,0E0,5.0946228E1,2.1373337E1,0E0,0E0,0E0,3.643898E1,0E0,0E0,0E0,0E0,2.205835E1,0E0,1.055246E1,0E0,9.087662E0,0E0,0E0],"parents":[2147483647,0,0,1,1,2,2,3,3,4,4,6,6,7,7,11,11,16,16,18,18,20,20],"right_children":[2,4,6,8,10,-1,12,14,-1,-1,-1,16,-1,-1,-1,-1,18,-1,20,-1,22,-1,-1],"split_conditions":[5.627875E-1,1.8586335E0,-4.3479195E-1,-1.6916763E0,4.9383774E-1,-3.726578E-2,1.4913514E0,-9.035966E-1,-4.7840618E-2,-0E0,4.3302678E-2,-7.487132E-1,-2.7173216E-2,3.7685353E-2,-0E0,-1.7529083E-2,-9.089891E-1,-4.066085E-3,-7.977585E-1,-0E0,-1.1757153E0,-0E0,4.6377525E-2],"split_indices":[459,55,268,98,22,0,105,332,0,0,0,320,0,0,0,0,281,0,92,0,65,0,0],"split_type":[0,0,0,0,0,0,0,0,0,0,0,0,0,0,0,0,0,0,0,0,0,0,0],"sum_hessian":[3.2199976E2,1.5712175E2,1.6487802E2,1.26911766E2,3.020998E1,1.7279593E1,1.4759843E2,1.8516134E1,1.0839563E2,3.8058076E0,2.6404173E1,1.3740341E2,1.0195014E1,1.3489979E1,5.0261564E0,7.4283414E0,1.2997507E2,5.529411E0,1.2444566E2,3.276633E0,1.2116903E2,2.9878352E0,1.1818119E2],"tree_param":{"num_deleted":"0","num_feature":"500","num_nodes":"23","size_leaf_vector":"1"}},{"base_weights":[-0E0,-3.6289617E-1,7.983073E-1,-4.5213826E-2,-0E0,1.0537577E0,-2.5764825E-2,-4.1930396E-2,3.220922E-1,-1.836208E-3,1.2091994E0,6.3361067E-1,-3.760889E-2,1.345027E0,-0E0,-2.703572E-2,8.8632816E-1,4.8354372E-2,-0E0,1.069031E0,-1.3893619E-2,4.33724E-2,-0E0,1.5903179E-2,-1.7618544E-2],"categories":[],"categories_nodes":[],"categories_segments":[],"categories_sizes":[],"default_left":[0,0,0,0,0,0,0,0,0,0,0,0,0,0,0,0,0,0,0,0,0,0,0,0,0],"id":16,"left_children":[1,3,5,-1,7,9,-1,-1,11,-1,13,15,-1,17,-1,-1,19,-1,-1,21,-1,-1,23,-1,-1],"loss_changes":[1.1205494E2,9.642058E1,5.2461876E1,0E0,8.239319E1,1.98544E1,0E0,0E0,7.278425E1,0E0,1.5410522E1,5.155553E1,0E0,5.374893E0,0E0,0E0,3.0469223E1,0E0,0E0,1.6853653E1,0E0,0E0,1.8750399E1,0E0,0E0],"parents":[2147483647,0,0,1,1,2,2,4,4,5,5,8,8,10,10,11,11,13,13,16,16,19,19,22,22],"right_children":[2,4,6,-1,8,10,-1,-1,12,-1,14,16,-1,18,-1,-1,20,-1,-1,22,-1,-1,24,-1,-1],"split_conditions":[9.4797546E-1,-2.5847897E-1,2.1359071E-1,-4.5213826E-2,-4.675173E-1,-1.832673E-2,-2.5764825E-2,-4.1930396E-2,2.2140065E-1,-1.836208E-3,1.1858596E0,-2.922441E-1,-3.760889E-2,6.0519016E-1,-0E0,-2.703572E-2,7.2648865E-1,4.8354372E-2,-0E0,3.225274E-2,-1.3893619E-2,4.33724E-2,-2.5339E-1,1.5903179E-2,-1.7618544E-2],"split_indices":[52,229,227,0,123,339,0,0,174,0,372,386,0,425,0,0,88,0,0,485,0,0,386,0,0],"split_type":[0,0,0,0,0,0,0,0,0,0,0,0,0,0,0,0,0,0,0,0,0,0,0,0,0],"sum_hessian":[3.2302795E2,2.2076085E2,1.0226711E2,6.3483875E1,1.5727698E2,9.209943E1,1.01676855E1,2.9426281E1,1.2785069E2,5.26192E0,8.683751E1,1.0942173E2,1.8428965E1,8.267662E1,4.1608863E0,1.1858215E1,9.7563515E1,8.029338E1,2.3832383E0,9.0698784E1,6.8647304E0,7.6348206E1,1.4350577E1,6.630667E0,7.71991E0],"tree_param":{"num_deleted":"0","num_feature":"500","num_nodes":"25","size_leaf_vector":"1"}},{"base_weights":[-8.503384E-2,-6.3413906E-1,5.9905857E-1,-1.1204361E0,6.304737E-1,-3.275751E-2,8.887648E-1,5.1201737E-1,-4.753465E-2,1.1333479E0,-1.8877396E-2,1.0741844E0,-1.9282643E-2,3.1174319E-2,-0E0,4.4627763E-2,-0E0,-0E0,1.2000703E0,-0E0,4.3639094E-2],"categories":[],"categories_nodes":[],"categories_segments":[],"categories_sizes":[],"default_left":[0,0,0,0,0,0,0,0,0,0,0,0,0,0,0,0,0,0,0,0,0],"id":17,"left_children":[1,3,5,7,9,-1,11,13,-1,15,-1,17,-1,-1,-1,-1,-1,-1,19,-1,-1],"loss_changes":[1.3058629E2,1.2279712E2,7.227251E1,7.07159E1,4.2046494E1,0E0,3.9005173E1,9.094908E0,0E0,6.1383896E0,0E0,1.6583603E1,0E0,0E0,0E0,0E0,0E0,0E0,8.985123E0,0E0,0E0],"parents":[2147483647,0,0,1,1,2,2,3,3,4,4,6,6,7,7,9,9,11,11,18,18],"right_children":[2,4,6,8,10,-1,12,14,-1,16,-1,18,-1,-1,-1,-1,-1,-1,20,-1,-1],"split_conditions":[7.46689E-1,1.4257581E0,2.790997E-1,-1.9959908E0,-4.3433264E-1,-3.275751E-2,4.9885365E-1,-1.0833372E0,-4.753465E-2,-9.638255E-2,-1.8877396E-2,-2.6887333E-1,-1.9282643E-2,3.1174319E-2,-0E0,4.4627763E-2,-0E0,-0E0,-8.396801E-1,-0E0,4.3639094E-2],"split_indices":[155,139,459,420,310,0,214,492,0,236,0,352,0,0,0,0,0,0,327,0,0],"split_type":[0,0,0,0,0,0,0,0,0,0,0,0,0,0,0,0,0,0,0,0,0],"sum_hessian":[3.0178314E2,1.7362617E2,1.2815695E2,1.2978267E2,4.3843517E1,1.5865516E1,1.12291435E2,1.5253718E1,1.14528946E2,3.534091E1,8.5026045E0,1.0429096E2,8.000475E0,1.2656876E1,2.5968423E0,3.2985268E1,2.355644E0,4.8385844E0,9.945238E1,3.232139E0,9.622024E1],"tree_param":{"num_deleted":"0","num_feature":"500","num_nodes":"21","size_leaf_vector":"1"}},{"base_weights":[-0E0,-4.1599035E-2,2.255573E-1,-0E0,4.404154E-2,-1.0287203E0,3.66978E-1,-4.5205288E-2,1.0910306E-2,-3.8607053E-2,6.454929E-1,8.309555E-1,-2.9136296E-2,-1.9424086E-2,9.8365074E-1,-0E0,1.164902E0,1.2331393E-2,-2.3148967E-2,-0E0,1.2601886E0,4.4873156E-2,-0E0],"categories":[],"categories_nodes":[],"categories_segments":[],"categories_sizes":[],"default_left":[0,0,0,0,0,0,0,0,0,0,0,0,0,0,0,0,0,0,0,0,0,0,0],"id":18,"left_children":[1,-1,3,5,-1,7,9,-1,-1,-1,11,13,-1,-1,15,17,19,-1,-1,-1,21,-1,-1],"loss_changes":[1.08787735E2,0E0,7.87855E1,1.07450294E2,0E0,3.4115395E1,8.812858E1,0E0,0E0,0E0,5.3047554E1,3.7722168E1,0E0,0E0,2.3682983E1,2.1606888E1,1.2473251E1,0E0,0E0,0E0,5.6716614E0,0E0,0E0],"parents":[2147483647,0,0,2,2,3,3,5,5,6,6,10,10,11,11,14,14,15,15,16,16,20,20],"right_children":[2,-1,4,6,-1,8,10,-1,-1,-1,12,14,-1,-1,16,18,20,-1,-1,-1,22,-1,-1],"split_conditions":[-5.0392073E-1,-4.1599035E-2,1.9059423E0,-1.3289337E-1,4.404154E-2,2.228216E0,-4.675173E-1,-4.5205288E-2,1.0910306E-2,-3.8607053E-2,7.826072E-1,-6.8633705E-1,-2.9136296E-2,-1.9424086E-2,-3.659216E-1,-2.033253E0,-3.2412162E-1,1.2331393E-2,-2.3148967E-2,-0E0,9.6223116E-1,4.4873156E-2,-0E0],"split_indices":[10,0,167,418,0,0,123,0,0,0,150,359,0,0,386,394,229,0,0,0,417,0,0],"split_type":[0,0,0,0,0,0,0,0,0,0,0,0,0,0,0,0,0,0,0,0,0,0,0],"sum_hessian":[3.2693695E2,4.7819645E1,2.7911728E2,2.3294878E2,4.616851E1,5.9197548E1,1.7375124E2,5.285383E1,6.3437185E0,2.2796171E1,1.5095506E2,1.389407E2,1.2014362E1,8.697283E0,1.3024341E2,1.6414589E1,1.1382883E2,6.4319577E0,9.982632E0,4.0043206E0,1.098245E2,1.07314964E2,2.5095434E0],"tree_param":{"num_deleted":"0","num_feature":"500","num_nodes":"23","size_leaf_vector":"1"}},{"base_weights":[-1.8505251E-2,-9.164193E-1,2.8886333E-1,-4.4845697E-2,2.9198928E-2,-3.7112124E-2,4.9561402E-1,-3.523E-2,6.952296E-1,-2.6876051E-2,8.45257E-1,9.655151E-1,-1.830049E-2,-0E0,1.1385077E0,-2.708074E-2,2.9254887E-2,1.2201556E0,-0E0,4.336488E-2,-0E0],"categories":[],"categories_nodes":[],"categories_segments":[],"categories_sizes":[],"default_left":[0,0,0,0,0,0,0,0,0,0,0,0,0,0,0,0,0,0,0,0,0],"id":19,"left_children":[1,3,5,-1,-1,-1,7,-1,9,-1,11,13,-1,15,17,-1,-1,19,-1,-1,-1],"loss_changes":[1.0739968E2,7.7483315E1,7.671077E1,0E0,0E0,0E0,7.326128E1,0E0,4.965374E1,0E0,3.4875748E1,2.0198792E1,0E0,4.3290283E1,1.2388519E1,0E0,0E0,6.8694916E0,0E0,0E0,0E0],"parents":[2147483647,0,0,1,1,2,2,6,6,8,8,10,10,11,11,13,13,14,14,17,17],"right_children":[2,4,6,-1,-1,-1,8,-1,10,-1,12,14,-1,16,18,-1,-1,20,-1,-1,-1],"split_conditions":[-1.3289337E-1,2.873594E0,-6.01562E-1,-4.4845697E-2,2.9198928E-2,-3.7112124E-2,-7.1221465E-1,-3.523E-2,-7.0311296E-1,-2.6876051E-2,8.474464E-1,-1.5499401E-1,-1.830049E-2,1.3514171E0,9.231501E-1,-2.708074E-2,2.9254887E-2,8.951852E-1,-0E0,4.336488E-2,-0E0],"split_indices":[418,167,368,0,0,0,338,0,267,0,150,158,0,31,437,0,0,278,0,0,0],"split_type":[0,0,0,0,0,0,0,0,0,0,0,0,0,0,0,0,0,0,0,0,0],"sum_hessian":[3.0627686E2,8.446793E1,2.2180894E2,7.218749E1,1.2280441E1,2.3983465E1,1.9782547E2,1.8326025E1,1.7949945E2,1.1748452E1,1.6775099E2,1.5944913E2,8.301866E0,2.5526272E1,1.3392285E2,1.2367767E1,1.31585045E1,1.299434E2,3.979456E0,1.2709173E2,2.8516746E0],"tree_param":{"num_deleted":"0","num_feature":"500","num_nodes":"21","size_leaf_vector":"1"}},{"base_weights":[-3.756996E-2,-4.2826567E-2,1.7242137E-1,-3.7514698E-2,3.8423482E-1,5.405772E-1,-3.4171782E-2,-2.9324705E-2,6.8274325E-1,-2.118454E-2,7.967095E-1,8.9897406E-1,-1.5593814E-2,-8.970578E-3,9.919086E-1,-0E0,1.101748E0,-1.7532147E-2,9.360693E-3,-0E0,3.931478E-2],"categories":[],"categories_nodes":[],"categories_segments":[],"categories_sizes":[],"default_left":[0,0,0,0,0,0,0,0,0,0,0,0,0,0,0,0,0,0,0,0,0],"id":20,"left_children":[1,-1,3,-1,5,7,-1,-1,9,-1,11,13,-1,-1,15,17,19,-1,-1,-1,-1],"loss_changes":[1.0625982E2,0E0,8.083549E1,0E0,5.8958885E1,5.0205406E1,0E0,0E0,3.544359E1,0E0,2.8803528E1,2.2609344E1,0E0,0E0,1.4567657E1,1.4796766E1,8.361084E0,0E0,0E0,0E0,0E0],"parents":[2147483647,0,0,2,2,4,4,5,5,8,8,10,10,11,11,14,14,15,15,16,16],"right_children":[2,-1,4,-1,6,8,-1,-1,10,-1,12,14,-1,-1,16,18,20,-1,-1,-1,-1],"split_conditions":[-5.0590587E-1,-4.2826567E-2,-5.0392073E-1,-3.7514698E-2,8.8673234E-1,-8.3640337E-1,-3.4171782E-2,-2.9324705E-2,-9.089891E-1,-2.118454E-2,1.0007217E0,-9.384357E-1,-1.5593814E-2,-8.970578E-3,-8.895111E-1,1.7448946E0,-1.1623251E0,-1.7532147E-2,9.360693E-3,-0E0,3.931478E-2],"split_indices":[204,0,10,0,37,179,0,0,281,0,300,255,0,0,18,41,344,0,0,0,0],"split_type":[0,0,0,0,0,0,0,0,0,0,0,0,0,0,0,0,0,0,0,0,0],"sum_hessian":[2.9736368E2,4.875331E1,2.4861037E2,3.0136366E1,2.18474E2,2.0138956E2,1.7084454E1,1.35298195E1,1.8785973E2,9.658398E0,1.7820134E2,1.7043867E2,7.7626543E0,6.500936E0,1.6393774E2,1.4178967E1,1.4975877E2,7.936394E0,6.242573E0,3.3325696E0,1.4642621E2],"tree_param":{"num_deleted":"0","num_feature":"500","num_nodes":"21","size_leaf_vector":"1"}},{"base_weights":[2.8510867E-2,-5.370504E-1,4.526884E-1,-4.4393517E-2,5.283059E-1,-6.5494514E-1,7.6113045E-1,-2.1457711E-2,9.788153E-1,1.2188719E-2,-3.8882356E-2,9.1791594E-1,-2.3753945E-2,-0E0,3.9045785E-2,-1.2566301E-2,1.039654E0,-0E0,1.1359797E0,-0E0,1.2144612E0,4.2946525E-2,-0E0],"categories":[],"categories_nodes":[],"categories_segments":[],"categories_sizes":[],"default_left":[0,0,0,0,0,0,0,0,0,0,0,0,0,0,0,0,0,0,0,0,0,0,0],"id":21,"left_children":[1,3,5,-1,7,9,11,-1,13,-1,-1,15,-1,-1,-1,-1,17,-1,19,-1,21,-1,-1],"loss_changes":[9.050937E1,1.2850626E2,7.712631E1,0E0,4.1526157E1,3.2204964E1,4.437494E1,0E0,6.8308716E0,0E0,0E0,2.8258621E1,0E0,0E0,0E0,0E0,1.5427292E1,0E0,1.1135437E1,0E0,4.8146667E0,0E0,0E0],"parents":[2147483647,0,0,1,1,2,2,4,4,5,5,6,6,8,8,11,11,16,16,18,18,20,20],"right_children":[2,4,6,-1,8,10,12,-1,14,-1,-1,16,-1,-1,-1,-1,18,-1,20,-1,22,-1,-1],"split_conditions":[2.6435292E-1,1.0672067E0,-1.3289337E-1,-4.4393517E-2,3.254453E-1,-2.3037467E0,8.474464E-1,-2.1457711E-2,4.0924013E-2,1.2188719E-2,-3.8882356E-2,-6.7551595E-1,-2.3753945E-2,-0E0,3.9045785E-2,-1.2566301E-2,-7.429358E-1,-0E0,-9.8090875E-1,-0E0,1.0947561E0,4.2946525E-2,-0E0],"split_indices":[184,35,418,0,456,244,150,0,54,0,0,218,0,0,0,0,295,0,430,0,437,0,0],"split_type":[0,0,0,0,0,0,0,0,0,0,0,0,0,0,0,0,0,0,0,0,0,0,0],"sum_hessian":[3.194426E2,1.2915784E2,1.9028476E2,7.8937294E1,5.022054E1,3.603196E1,1.5425279E2,9.272988E0,4.094755E1,6.7167E0,2.9315258E1,1.440568E2,1.0196004E1,2.7355192E0,3.8212032E1,6.9944263E0,1.3706236E2,5.2710943E0,1.3179128E2,3.8433907E0,1.2794788E2,1.25395294E2,2.552592E0],"tree_param":{"num_deleted":"0","num_feature":"500","num_nodes":"23","size_leaf_vector":"1"}},{"base_weights":[-5.747663E-2,-4.8459223E-1,5.8063525E-1,-9.358631E-1,4.874086E-1,-0E0,4.093196E-2,6.488173E-1,-4.4899043E-2,9.2639273E-1,-2.1486213E-2,5.456859E-1,-3.710732E-2,-0E0,3.399525E-2,-0E0,4.0265672E-2,3.3641934E-2,-5.526169E-3],"categories":[],"categories_nodes":[],"categories_segments":[],"categories_sizes":[],"default_left":[0,0,0,0,0,0,0,0,0,0,0,0,0,0,0,0,0,0,0],"id":22,"left_children":[1,3,5,7,9,11,-1,13,-1,15,-1,17,-1,-1,-1,-1,-1,-1,-1],"loss_changes":[9.493527E1,9.503684E1,5.2227543E1,9.538245E1,4.113243E1,6.016581E1,0E0,1.0156572E1,0E0,1.486042E1,0E0,2.194932E1,0E0,0E0,0E0,0E0,0E0,0E0,0E0],"parents":[2147483647,0,0,1,1,2,2,3,3,4,4,5,5,7,7,9,9,11,11],"right_children":[2,4,6,8,10,12,-1,14,-1,16,-1,18,-1,-1,-1,-1,-1,-1,-1],"split_conditions":[8.015034E-1,1.1731647E0,1.0893615E0,-1.7425224E0,-9.755118E-2,-8.1722504E-1,4.093196E-2,1.2374634E0,-4.4899043E-2,2.3619715E-2,-2.1486213E-2,-4.9272752E-1,-3.710732E-2,-0E0,3.399525E-2,-0E0,4.0265672E-2,3.3641934E-2,-5.526169E-3],"split_indices":[461,344,248,347,429,256,0,50,0,413,0,394,0,0,0,0,0,0,0],"split_type":[0,0,0,0,0,0,0,0,0,0,0,0,0,0,0,0,0,0,0],"sum_hessian":[2.9594058E2,1.8447801E2,1.1146257E2,1.3137381E2,5.31042E1,5.364108E1,5.7821495E1,2.2121601E1,1.0925221E2,4.3084835E1,1.00193615E1,3.2635956E1,2.1005125E1,3.3111298E0,1.881047E1,4.317532E0,3.8767303E1,2.6613852E1,6.0221047E0],"tree_param":{"num_deleted":"0","num_feature":"500","num_nodes":"19","size_leaf_vector":"1"}},{"base_weights":[-4.952616E-2,-4.6187E-1,6.86521E-1,-4.243263E-2,-0E0,9.309288E-1,-2.2780236E-2,3.5619926E-1,-3.8847387E-2,1.1685357E0,-0E0,-2.9543774E-2,6.730368E-1,4.3214288E-2,-0E0,-0E0,-1.7873479E-2,-1.6776368E-2,9.27379E-1,3.6914982E-2,-0E0],"categories":[],"categories_nodes":[],"categories_segments":[],"categories_sizes":[],"default_left":[0,0,0,0,0,0,0,0,0,0,0,0,0,0,0,0,0,0,0,0,0],"id":23,"left_children":[1,3,5,-1,7,9,-1,11,-1,13,15,-1,17,-1,-1,-1,-1,-1,19,-1,-1],"loss_changes":[1.0231319E2,7.950279E1,4.2992855E1,0E0,7.185146E1,2.0887207E1,0E0,4.997443E1,0E0,7.3609085E0,1.0426789E1,0E0,3.2968044E1,0E0,0E0,0E0,0E0,0E0,1.3073914E1,0E0,0E0],"parents":[2147483647,0,0,1,1,2,2,4,4,5,5,7,7,9,9,10,10,12,12,18,18],"right_children":[2,4,6,-1,8,10,-1,12,-1,14,16,-1,18,-1,-1,-1,-1,-1,20,-1,-1],"split_conditions":[9.4797546E-1,8.488454E-2,2.4542002E-1,-4.243263E-2,5.0120648E-2,2.4068845E-2,-2.2780236E-2,-3.9701635E-1,-3.8847387E-2,1.100733E0,-2.0157113E0,-2.9543774E-2,-2.3701572E-1,4.3214288E-2,-0E0,-0E0,-1.7873479E-2,-1.6776368E-2,2.8558904E-1,3.6914982E-2,-0E0],"split_indices":[52,368,425,0,347,446,0,41,0,372,393,0,386,0,0,0,0,0,366,0,0],"split_type":[0,0,0,0,0,0,0,0,0,0,0,0,0,0,0,0,0,0,0,0,0],"sum_hessian":[2.8850867E2,1.9159312E2,9.691553E1,7.107258E1,1.20520546E2,8.692958E1,9.985946E0,9.240487E1,2.8115679E1,7.302744E1,1.390214E1,1.397628E1,7.842859E1,7.012215E1,2.9052958E0,5.565199E0,8.336941E0,8.628482E0,6.98001E1,6.528884E1,4.511262E0],"tree_param":{"num_deleted":"0","num_feature":"500","num_nodes":"21","size_leaf_vector":"1"}},{"base_weights":[1.4287373E-3,-8.158647E-1,3.2651836E-1,-4.147065E-2,3.502561E-1,-3.4696937E-2,5.391626E-1,2.7789008E-2,-0E0,-2.634767E-2,6.692379E-1,7.798771E-1,-2.1242216E-2,-1.7667118E-2,8.8939315E-1,1.0066218E0,-0E0,-0E0,1.07994E0,-2.1724707E-2,1.0981992E-2,3.851218E-2,-0E0],"categories":[],"categories_nodes":[],"categories_segments":[],"categories_sizes":[],"default_left":[0,0,0,0,0,0,0,0,0,0,0,0,0,0,0,0,0,0,0,0,0,0,0],"id":24,"left_children":[1,3,5,-1,7,-1,9,-1,-1,-1,11,13,-1,-1,15,17,19,-1,21,-1,-1,-1,-1],"loss_changes":[9.405134E1,5.000586E1,7.685678E1,0E0,1.1011243E1,0E0,4.2830627E1,0E0,0E0,0E0,3.3924004E1,3.1621384E1,0E0,0E0,1.6412308E1,1.1548035E1,1.9327606E1,0E0,7.466675E0,0E0,0E0,0E0,0E0],"parents":[2147483647,0,0,1,1,2,2,4,4,6,6,10,10,11,11,14,14,15,15,16,16,18,18],"right_children":[2,4,6,-1,8,-1,10,-1,-1,-1,12,14,-1,-1,16,18,20,-1,22,-1,-1,-1,-1],"split_conditions":[-8.808445E-2,1.6186321E0,-4.689226E-1,-4.147065E-2,-1.0900822E0,-3.4696937E-2,-9.089891E-1,2.7789008E-2,-0E0,-2.634767E-2,9.935519E-1,-9.047727E-1,-2.1242216E-2,-1.7667118E-2,8.474464E-1,-8.7136936E-1,1.5515194E0,-0E0,1.1039121E0,-2.1724707E-2,1.0981992E-2,3.851218E-2,-0E0],"split_indices":[158,123,10,0,314,0,281,0,0,0,376,110,0,0,150,92,409,0,300,0,0,0,0],"split_type":[0,0,0,0,0,0,0,0,0,0,0,0,0,0,0,0,0,0,0,0,0,0,0],"sum_hessian":[3.0229257E2,7.931168E1,2.2298088E2,6.3555977E1,1.5755709E1,2.540485E1,1.9757602E2,1.2464258E1,3.2914495E0,1.2453846E1,1.8512218E2,1.7601915E2,9.103028E0,8.224545E0,1.677946E2,1.5214156E2,1.5653046E1,4.40099E0,1.4774057E2,9.304768E0,6.348278E0,1.4447858E2,3.2619958E0],"tree_param":{"num_deleted":"0","num_feature":"500","num_nodes":"23","size_leaf_vector":"1"}},{"base_weights":[3.0255688E-2,-3.7945732E-2,2.4292298E-1,-4.8464552E-1,5.192215E-1,-4.143158E-2,3.2772426E-2,-3.1811796E-2,6.959416E-1,-2.2258313E-2,8.2397217E-1,-1.4752994E-2,9.321644E-1,1.0078535E0,-0E0,-0E0,1.1046588E0,3.4445175E-3,-9.953018E-3,4.047109E-2,-0E0],"categories":[],"categories_nodes":[],"categories_segments":[],"categories_sizes":[],"default_left":[0,0,0,0,0,0,0,0,0,0,0,0,0,0,0,0,0,0,0,0,0],"id":25,"left_children":[1,-1,3,5,7,-1,-1,-1,9,-1,11,-1,13,15,-1,17,19,-1,-1,-1,-1],"loss_changes":[8.798754E1,0E0,6.2815304E1,9.386631E1,6.22854E1,0E0,0E0,0E0,3.9380646E1,0E0,2.9093903E1,0E0,1.2963348E1,1.0699173E1,0E0,6.7165136E0,7.6225586E0,0E0,0E0,0E0,0E0],"parents":[2147483647,0,0,2,2,3,3,4,4,8,8,10,10,12,12,13,13,15,15,16,16],"right_children":[2,-1,4,6,8,-1,-1,-1,10,-1,12,-1,14,16,-1,18,20,-1,-1,-1,-1],"split_conditions":[-5.0392073E-1,-3.7945732E-2,-1.3289337E-1,1.9059423E0,-7.0311296E-1,-4.143158E-2,3.2772426E-2,-3.1811796E-2,-8.4715843E-1,-2.2258313E-2,-1.1689876E0,-1.4752994E-2,1.4913514E0,-6.675561E-1,-0E0,-2.2667224E0,6.006099E-1,3.4445175E-3,-9.953018E-3,4.047109E-2,-0E0],"split_indices":[10,0,418,167,267,0,0,0,327,0,330,0,105,218,0,7,227,0,0,0,0],"split_type":[0,0,0,0,0,0,0,0,0,0,0,0,0,0,0,0,0,0,0,0,0],"sum_hessian":[3.0416122E2,4.179092E1,2.623703E2,6.457497E1,1.9779533E2,4.6287277E1,1.828769E1,1.667795E1,1.8111739E2,1.0474376E1,1.7064302E2,7.889688E0,1.6275333E2,1.57882E2,4.871317E0,1.2574758E1,1.4530725E2,5.8235736E0,6.7511845E0,1.3421796E2,1.1089304E1],"tree_param":{"num_deleted":"0","num_feature":"500","num_nodes":"21","size_leaf_vector":"1"}},{"base_weights":[-0E0,-3.7410315E-2,1.7609437E-1,3.478452E-1,-3.6734343E-2,-3.3185136E-2,5.179095E-1,-2.9022244E-1,7.4908775E-1,-3.6095005E-2,2.1319505E-2,-1.7014861E-2,8.6220056E-1,-8.081834E-3,9.5985204E-1,-0E0,1.0452992E0,-0E0,1.1147466E0,-0E0,3.9856456E-2],"categories":[],"categories_nodes":[],"categories_segments":[],"categories_sizes":[],"default_left":[0,0,0,0,0,0,0,0,0,0,0,0,0,0,0,0,0,0,0,0,0],"id":26,"left_children":[1,-1,3,5,-1,-1,7,9,11,-1,-1,-1,13,-1,15,-1,17,-1,19,-1,-1],"loss_changes":[7.7080185E1,0E0,6.645076E1,6.235906E1,0E0,0E0,4.582982E1,4.9996437E1,3.0068115E1,0E0,0E0,0E0,2.1122711E1,0E0,1.4155701E1,0E0,1.0031662E1,0E0,8.465546E0,0E0,0E0],"parents":[2147483647,0,0,2,2,3,3,6,6,7,7,8,8,12,12,14,14,16,16,18,18],"right_children":[2,-1,4,6,-1,-1,8,10,12,-1,-1,-1,14,-1,16,-1,18,-1,20,-1,-1],"split_conditions":[-5.0392073E-1,-3.7410315E-2,8.0540365E-1,-9.089891E-1,-3.6734343E-2,-3.3185136E-2,-2.959252E-1,1.8507522E0,-7.837856E-1,-3.6095005E-2,2.1319505E-2,-1.7014861E-2,-8.6744624E-1,-8.081834E-3,-8.88326E-1,-0E0,-8.641597E-1,-0E0,-8.8146144E-1,-0E0,3.9856456E-2],"split_indices":[10,0,436,281,0,0,229,401,354,0,0,0,179,0,228,0,327,0,85,0,0],"split_type":[0,0,0,0,0,0,0,0,0,0,0,0,0,0,0,0,0,0,0,0,0],"sum_hessian":[2.906377E2,4.063656E1,2.5000113E2,2.2539642E2,2.4604706E1,2.0461231E1,2.049352E2,3.820679E1,1.6672841E2,2.5241169E1,1.296562E1,8.198451E0,1.5852995E2,6.517774E0,1.5201218E2,5.3444667E0,1.4666771E2,4.0394797E0,1.4262823E2,3.3178556E0,1.3931038E2],"tree_param":{"num_deleted":"0","num_feature":"500","num_nodes":"21","size_leaf_vector":"1"}},{"base_weights":[-8.081368E-3,-4.451782E-1,5.605251E-1,-8.127596E-1,6.539403E-1,7.6288915E-1,-2.311271E-2,-1.1337346E0,2.664711E-1,3.8796574E-2,-9.357192E-3,9.503764E-1,-1.6483666E-2,-4.3110806E-2,-0E0,-5.4826774E-3,2.8972095E-2,-0E0,1.0727986E0,3.977811E-2,-0E0],"categories":[],"categories_nodes":[],"categories_segments":[],"categories_sizes":[],"default_left":[0,0,0,0,0,0,0,0,0,0,0,0,0,0,0,0,0,0,0,0,0],"id":27,"left_children":[1,3,5,7,9,11,-1,13,15,-1,-1,17,-1,-1,-1,-1,-1,-1,19,-1,-1],"loss_changes":[8.3961624E1,8.052602E1,3.860705E1,5.4323044E1,3.012301E1,3.229004E1,0E0,1.969603E1,2.0932928E1,0E0,0E0,1.2737129E1,0E0,0E0,0E0,0E0,0E0,0E0,9.223999E0,0E0,0E0],"parents":[2147483647,0,0,1,1,2,2,3,3,4,4,5,5,7,7,8,8,11,11,18,18],"right_children":[2,4,6,8,10,12,-1,14,16,-1,-1,18,-1,-1,-1,-1,-1,-1,20,-1,-1],"split_conditions":[6.9551504E-1,1.5373967E0,5.141693E-1,1.3813175E0,-9.3648064E-1,1.4913514E0,-2.311271E-2,2.7705686E0,1.3905635E0,3.8796574E-2,-9.357192E-3,-2.2914141E-1,-1.6483666E-2,-4.3110806E-2,-0E0,-5.4826774E-3,2.8972095E-2,-0E0,8.595065E-1,3.977811E-2,-0E0],"split_indices":[52,53,84,283,64,105,0,58,139,0,0,182,0,0,0,0,0,0,14,0,0],"split_type":[0,0,0,0,0,0,0,0,0,0,0,0,0,0,0,0,0,0,0,0,0],"sum_hessian":[2.8007535E2,1.659739E2,1.1410145E2,1.2960582E2,3.6368088E1,1.03435646E2,1.0665802E1,1.0537196E2,2.4233852E1,2.9166857E1,7.2012296E0,9.527924E1,8.156401E0,9.960103E1,5.770936E0,6.505353E0,1.77285E1,4.7370644E0,9.054218E1,8.6888824E1,3.6533558E0],"tree_param":{"num_deleted":"0","num_feature":"500","num_nodes":"21","size_leaf_vector":"1"}},{"base_weights":[-0E0,-3.7597664E-2,1.7828172E-1,-3.3048157E-2,3.4820142E-1,-3.2396904E-1,6.036863E-1,4.5496783E-1,-3.8002666E-2,-2.579286E-2,7.6100254E-1,-0E0,2.8672127E-2,9.425498E-1,-1.134423E-1,-0E0,1.0262789E0,5.126319E-3,-2.7761523E-2,-0E0,3.704026E-2],"categories":[],"categories_nodes":[],"categories_segments":[],"categories_sizes":[],"default_left":[0,0,0,0,0,0,0,0,0,0,0,0,0,0,0,0,0,0,0,0,0],"id":28,"left_children":[1,-1,3,-1,5,7,9,11,-1,-1,13,-1,-1,15,17,-1,19,-1,-1,-1,-1],"loss_changes":[7.54706E1,0E0,5.874832E1,0E0,4.5475063E1,5.3776768E1,4.4890625E1,1.0644444E1,0E0,0E0,2.9314781E1,0E0,0E0,1.1227524E1,2.0988071E1,0E0,7.696289E0,0E0,0E0,0E0,0E0],"parents":[2147483647,0,0,2,2,4,4,5,5,6,6,7,7,10,10,13,13,14,14,16,16],"right_children":[2,-1,4,-1,6,8,10,12,-1,-1,14,-1,-1,16,18,-1,20,-1,-1,-1,-1],"split_conditions":[-6.01562E-1,-3.7597664E-2,-5.0392073E-1,-3.3048157E-2,-1.6036795E-1,-1.0029671E0,-8.1577945E-1,8.6586934E-1,-3.8002666E-2,-2.579286E-2,4.3683833E-1,-0E0,2.8672127E-2,-8.641597E-1,-1.8681922E0,-0E0,-7.9153055E-1,5.126319E-3,-2.7761523E-2,-0E0,3.704026E-2],"split_indices":[368,0,10,0,482,68,18,184,0,0,485,0,0,327,408,0,430,0,0,0,0],"split_type":[0,0,0,0,0,0,0,0,0,0,0,0,0,0,0,0,0,0,0,0,0],"sum_hessian":[2.8017548E2,3.8900642E1,2.4127484E2,2.5156519E1,2.1611832E2,5.1255154E1,1.6486317E2,2.1096632E1,3.0158522E1,1.1992516E1,1.5287065E2,3.7120018E0,1.738463E1,1.3385023E2,1.9020409E1,4.646739E0,1.292035E2,5.9464774E0,1.3073932E1,3.524079E0,1.2567942E2],"tree_param":{"num_deleted":"0","num_feature":"500","num_nodes":"21","size_leaf_vector":"1"}},{"base_weights":[-0E0,7.597473E-1,-2.202369E-1,-0E0,9.544455E-1,-4.049776E-2,6.1798073E-2,-0E0,3.6490038E-2,-7.7473354E-1,4.0642974E-1,-0E0,-3.779088E-2,-2.7742574E-2,6.4344746E-1,-1.629038E-2,8.248451E-1,1.0621341E0,-0E0,3.927173E-2,-0E0,2.2301268E-2,-2.171291E-2],"categories":[],"categories_nodes":[],"categories_segments":[],"categories_sizes":[],"default_left":[0,0,0,0,0,0,0,0,0,0,0,0,0,0,0,0,0,0,0,0,0,0,0],"id":29,"left_children":[1,3,5,-1,7,-1,9,-1,-1,11,13,-1,-1,-1,15,-1,17,19,21,-1,-1,-1,-1],"loss_changes":[6.1379856E1,1.3186886E1,8.183149E1,0E0,5.5686417E0,0E0,5.9940792E1,0E0,0E0,1.8393032E1,4.6523155E1,0E0,0E0,0E0,2.939785E1,0E0,1.5700195E1,5.813858E0,2.9304138E1,0E0,0E0,0E0,0E0],"parents":[2147483647,0,0,1,1,2,2,4,4,6,6,9,9,10,10,14,14,16,16,17,17,18,18],"right_children":[2,4,6,-1,8,-1,10,-1,-1,12,14,-1,-1,-1,16,-1,18,20,22,-1,-1,-1,-1],"split_conditions":[-1.3907472E0,-1.7843299E-1,-2.6111197E-1,-0E0,-4.086496E-1,-4.049776E-2,-8.86485E-2,-0E0,3.6490038E-2,-2.518105E0,-4.675173E-1,-0E0,-3.779088E-2,-2.7742574E-2,-6.768552E-1,-1.629038E-2,1.0440526E-1,4.7119215E-1,-1.769327E0,3.927173E-2,-0E0,2.2301268E-2,-2.171291E-2],"split_indices":[12,446,338,0,32,0,90,0,0,347,123,0,0,0,438,0,294,313,210,0,0,0,0],"split_type":[0,0,0,0,0,0,0,0,0,0,0,0,0,0,0,0,0,0,0,0,0,0,0],"sum_hessian":[2.7614743E2,6.233413E1,2.138133E2,5.244263E0,5.7089863E1,5.400316E1,1.5981013E2,2.923298E0,5.4166565E1,4.013652E1,1.19673615E2,5.521106E0,3.4615417E1,1.414368E1,1.0552994E2,8.784512E0,9.674542E1,7.4644485E1,2.210094E1,7.175592E1,2.8885655E0,1.1300619E1,1.0800322E1],"tree_param":{"num_deleted":"0","num_feature":"500","num_nodes":"23","size_leaf_vector":"1"}},{"base_weights":[-0E0,-1.5733023E-1,3.3900697E-2,-9.626381E-1,1.1297298E-1,-4.020703E-2,3.7917031E-3,4.5789018E-1,-8.238921E-1,-2.8113937E-2,6.8382424E-1,-0E0,-3.8372718E-2,-0E0,1.0599523E0,7.56029E-1,-3.175421E-2,3.9056417E-2,-0E0,-0E0,3.4141652E-2],"categories":[],"categories_nodes":[],"categories_segments":[],"categories_sizes":[],"default_left":[0,0,0,0,0,0,0,0,0,0,0,0,0,0,0,0,0,0,0,0,0],"id":30,"left_children":[1,3,-1,5,7,-1,-1,9,11,-1,13,-1,-1,15,17,19,-1,-1,-1,-1,-1],"loss_changes":[6.522929E1,7.185555E1,0E0,2.2463524E1,7.0259094E1,0E0,0E0,5.019644E1,1.6518894E1,0E0,2.8706116E1,0E0,0E0,5.6667694E1,5.1737213E0,6.6528435E0,0E0,0E0,0E0,0E0,0E0],"parents":[2147483647,0,0,1,1,3,3,4,4,7,7,8,8,10,10,13,13,14,14,15,15],"right_children":[2,4,-1,6,8,-1,-1,10,12,-1,14,-1,-1,16,18,20,-1,-1,-1,-1,-1],"split_conditions":[1.9059423E0,-1.3289337E-1,3.3900697E-2,2.474844E0,4.8472673E-2,-4.020703E-2,3.7917031E-3,-4.675173E-1,-2.5161052E0,-2.8113937E-2,4.737075E-1,-0E0,-3.8372718E-2,-7.420009E-1,2.763633E-1,2.9973093E-1,-3.175421E-2,3.9056417E-2,-0E0,-0E0,3.4141652E-2],"split_indices":[167,418,0,0,40,0,0,123,185,0,155,0,0,201,291,279,0,0,0,0,0],"split_type":[0,0,0,0,0,0,0,0,0,0,0,0,0,0,0,0,0,0,0,0,0],"sum_hessian":[2.8234964E2,2.4101898E2,4.133065E1,6.769738E1,1.733216E2,6.1848274E1,5.8491025E0,1.3266434E2,4.065726E1,1.4726193E1,1.1793815E2,5.1391954E0,3.5518066E1,4.376706E1,7.417109E1,2.5438044E1,1.8329016E1,7.1445724E1,2.725361E0,2.7381427E0,2.2699902E1],"tree_param":{"num_deleted":"0","num_feature":"500","num_nodes":"21","size_leaf_vector":"1"}},{"base_weights":[-0E0,-1.7742963E-1,3.355955E-2,-9.361072E-1,7.490138E-2,-3.9563805E-2,3.6691518E-3,-3.3593785E-2,3.0456355E-1,4.8660392E-1,-2.766615E-2,-2.1573976E-2,6.556679E-1,-0E0,9.0808666E-1,-2.6600776E-2,2.0919826E-2,3.6524177E-2,-0E0],"categories":[],"categories_nodes":[],"categories_segments":[],"categories_sizes":[],"default_left":[0,0,0,0,0,0,0,0,0,0,0,0,0,0,0,0,0,0,0],"id":31,"left_children":[1,3,-1,5,7,-1,-1,-1,9,11,-1,-1,13,15,17,-1,-1,-1,-1],"loss_changes":[6.5088356E1,6.1986473E1,0E0,2.1997955E1,5.3290554E1,0E0,0E0,0E0,3.935968E1,3.3032276E1,0E0,0E0,1.8079071E1,3.736792E1,1.0429283E1,0E0,0E0,0E0,0E0],"parents":[2147483647,0,0,1,1,3,3,4,4,8,8,9,9,12,12,13,13,14,14],"right_children":[2,4,-1,6,8,-1,-1,-1,10,12,-1,-1,14,16,18,-1,-1,-1,-1],"split_conditions":[1.9059423E0,-1.3289337E-1,3.355955E-2,2.5503888E0,-5.748993E-1,-3.9563805E-2,3.6691518E-3,-3.3593785E-2,7.1861583E-1,-6.4282566E-1,-2.766615E-2,-2.1573976E-2,2.5563765E-1,9.874229E-1,2.4455619E-1,-2.6600776E-2,2.0919826E-2,3.6524177E-2,-0E0],"split_indices":[167,418,0,92,267,0,0,0,104,108,0,0,184,447,364,0,0,0,0],"split_type":[0,0,0,0,0,0,0,0,0,0,0,0,0,0,0,0,0,0,0],"sum_hessian":[2.7022162E2,2.2962999E2,4.0591614E1,6.4896194E1,1.647338E2,5.9056095E1,5.8400993E0,2.3251055E1,1.4148274E2,1.2761425E2,1.3868493E1,1.075362E1,1.1686063E2,3.261101E1,8.424962E1,1.4273766E1,1.8337244E1,7.2300095E1,1.1949522E1],"tree_param":{"num_deleted":"0","num_feature":"500","num_nodes":"19","size_leaf_vector":"1"}},{"base_weights":[5.563215E-2,-3.5123542E-2,2.5148088E-1,-0E0,7.7356774E-1,-3.627272E-2,2.509255E-1,9.3517005E-1,-3.9053713E-3,5.333953E-1,-3.2697257E-2,3.5533123E-2,-0E0,8.3454335E-1,-3.4666806E-1,9.6238583E-1,-0E0,-0E0,-2.8989036E-2,-0E0,3.567105E-2],"categories":[],"categories_nodes":[],"categories_segments":[],"categories_sizes":[],"default_left":[0,0,0,0,0,0,0,0,0,0,0,0,0,0,0,0,0,0,0,0,0],"id":32,"left_children":[1,-1,3,5,7,-1,9,11,-1,13,-1,-1,-1,15,17,19,-1,-1,-1,-1,-1],"loss_changes":[7.295099E1,0E0,4.2808853E1,6.7603355E1,1.7147163E1,0E0,5.645182E1,8.871262E0,0E0,3.7557686E1,0E0,0E0,0E0,1.074247E1,1.4130885E1,5.472954E0,0E0,0E0,0E0,0E0,0E0],"parents":[2147483647,0,0,2,2,3,3,4,4,6,6,7,7,9,9,13,13,14,14,15,15],"right_children":[2,-1,4,6,8,-1,10,12,-1,14,-1,-1,-1,16,18,20,-1,-1,-1,-1,-1],"split_conditions":[-5.0392073E-1,-3.5123542E-2,9.4797546E-1,-2.5847897E-1,1.1858596E0,-3.627272E-2,2.2140065E-1,6.0519016E-1,-3.9053713E-3,1.2542713E-1,-3.2697257E-2,3.5533123E-2,-0E0,7.2648865E-1,-2.2320333E0,-5.441834E-1,-0E0,-0E0,-2.8989036E-2,-0E0,3.567105E-2],"split_indices":[10,0,52,229,372,0,174,425,0,277,0,0,0,88,12,368,0,0,0,0,0],"split_type":[0,0,0,0,0,0,0,0,0,0,0,0,0,0,0,0,0,0,0,0,0],"sum_hessian":[2.8239597E2,3.6943836E1,2.4545212E2,1.5813087E2,8.732124E1,3.4395077E1,1.237358E2,8.1188034E1,6.133209E0,1.0554308E2,1.8192719E1,7.73348E1,3.853232E0,8.512655E1,2.0416542E1,8.040338E1,4.7231627E0,4.8565044E0,1.5560037E1,3.097385E0,7.7306E1],"tree_param":{"num_deleted":"0","num_feature":"500","num_nodes":"21","size_leaf_vector":"1"}},{"base_weights":[-3.8755037E-2,-6.206895E-1,4.2233983E-1,7.2612655E-1,-1.0532374E0,7.151943E-1,-4.5521212E-1,-0E0,3.296205E-2,-0E0,-4.0675763E-2,-1.07268356E-1,9.64408E-1,-3.3739895E-2,5.5966377E-3,-0E0,-2.5147319E-2,3.579201E-2,-0E0],"categories":[],"categories_nodes":[],"categories_segments":[],"categories_sizes":[],"default_left":[0,0,0,0,0,0,0,0,0,0,0,0,0,0,0,0,0,0,0],"id":33,"left_children":[1,3,5,7,9,11,13,-1,-1,-1,-1,15,17,-1,-1,-1,-1,-1,-1],"loss_changes":[8.4608635E1,8.505003E1,4.4665947E1,6.0905685E0,1.7567291E1,2.8492462E1,2.2807718E1,0E0,0E0,0E0,0E0,1.5546227E1,6.9661026E0,0E0,0E0,0E0,0E0,0E0,0E0],"parents":[2147483647,0,0,1,1,2,2,3,3,4,4,5,5,6,6,11,11,12,12],"right_children":[2,4,6,8,10,12,14,-1,-1,-1,-1,16,18,-1,-1,-1,-1,-1,-1],"split_conditions":[5.627875E-1,-1.6787492E0,1.7141683E-1,4.8784912E-1,-2.372064E0,-3.0928733E-2,2.3958352E0,-0E0,3.296205E-2,-0E0,-4.0675763E-2,-1.2132456E0,6.187604E-1,-3.3739895E-2,5.5966377E-3,-0E0,-2.5147319E-2,3.579201E-2,-0E0],"split_indices":[459,231,441,412,352,415,400,0,0,0,0,408,289,0,0,0,0,0,0],"split_type":[0,0,0,0,0,0,0,0,0,0,0,0,0,0,0,0,0,0,0],"sum_hessian":[2.5336118E2,1.1935559E2,1.3400558E2,2.4704987E1,9.4650604E1,1.0702668E2,2.6978909E1,2.7006946E0,2.2004292E1,5.825615E0,8.882499E1,1.773359E1,8.929308E1,2.0998465E1,5.980444E0,5.384875E0,1.2348715E1,8.578104E1,3.512052E0],"tree_param":{"num_deleted":"0","num_feature":"500","num_nodes":"19","size_leaf_vector":"1"}},{"base_weights":[4.9054943E-2,-3.4341414E-2,2.394787E-1,-5.175172E-1,4.5876005E-1,-3.652646E-2,2.0483954E-2,-3.0215758E-1,6.8981534E-1,3.603186E-1,-3.3096652E-2,-3.0017348E-2,8.379853E-1,-0E0,2.3070624E-2,-2.3208244E-2,1.2085683E-3,-1.0595732E-2,9.57258E-1,3.448806E-2,-0E0],"categories":[],"categories_nodes":[],"categories_segments":[],"categories_sizes":[],"default_left":[0,0,0,0,0,0,0,0,0,0,0,0,0,0,0,0,0,0,0,0,0],"id":34,"left_children":[1,-1,3,5,7,-1,-1,9,11,13,-1,15,17,-1,-1,-1,-1,-1,19,-1,-1],"loss_changes":[6.8111725E1,0E0,4.8908234E1,4.6677406E1,4.1777473E1,0E0,0E0,3.510836E1,2.0352524E1,5.605236E0,0E0,1.6133488E1,2.4200394E1,0E0,0E0,0E0,0E0,0E0,6.25325E0,0E0,0E0],"parents":[2147483647,0,0,2,2,3,3,4,4,7,7,8,8,9,9,11,11,12,12,18,18],"right_children":[2,-1,4,6,8,-1,-1,10,12,14,-1,16,18,-1,-1,-1,-1,-1,20,-1,-1],"split_conditions":[-5.0392073E-1,-3.4341414E-2,-3.659216E-1,2.4987693E0,-8.808445E-2,-3.652646E-2,2.0483954E-2,-1.2807755E0,-3.2412162E-1,8.116018E-1,-3.3096652E-2,1.949407E0,-7.3080415E-1,-0E0,2.3070624E-2,-2.3208244E-2,1.2085683E-3,-1.0595732E-2,1.0666245E0,3.448806E-2,-0E0],"split_indices":[10,0,386,417,158,0,0,168,229,22,0,48,338,0,0,0,0,0,499,0,0],"split_type":[0,0,0,0,0,0,0,0,0,0,0,0,0,0,0,0,0,0,0,0,0],"sum_hessian":[2.7615173E2,3.580886E1,2.4034288E2,4.6129173E1,1.942137E2,3.5294376E1,1.08348E1,3.750733E1,1.5670638E2,1.3213624E1,2.4293707E1,1.7916222E1,1.3879015E2,2.12825E0,1.1085375E1,1.2258285E1,5.657938E0,6.99469E0,1.3179546E2,1.2842406E2,3.3714118E0],"tree_param":{"num_deleted":"0","num_feature":"500","num_nodes":"21","size_leaf_vector":"1"}},{"base_weights":[-0E0,2.9206625E-1,-6.871245E-1,8.358086E-1,-5.3435493E-2,-3.9447892E-2,4.6750346E-1,-0E0,3.3568252E-2,-8.156975E-1,4.4781408E-1,2.8451357E-2,-0E0,-0E0,-3.7479512E-2,-1.5613492E-2,2.8421406E-2],"categories":[],"categories_nodes":[],"categories_segments":[],"categories_sizes":[],"default_left":[0,0,0,0,0,0,0,0,0,0,0,0,0,0,0,0,0],"id":35,"left_children":[1,3,5,7,9,-1,11,-1,-1,13,15,-1,-1,-1,-1,-1,-1],"loss_changes":[6.80176E1,4.430389E1,5.9958733E1,1.2086105E1,5.6706238E1,0E0,9.203844E0,0E0,0E0,1.5741119E1,3.0514002E1,0E0,0E0,0E0,0E0,0E0,0E0],"parents":[2147483647,0,0,1,1,2,2,3,3,4,4,6,6,9,9,10,10],"right_children":[2,4,6,8,10,-1,12,-1,-1,14,16,-1,-1,-1,-1,-1,-1],"split_conditions":[2.3606729E-2,-8.264217E-1,1.5219185E0,-6.3279706E-1,4.2704362E-1,-3.9447892E-2,-1.1398321E0,-0E0,3.3568252E-2,-2.1544046E0,1.680196E-1,2.8451357E-2,-0E0,-0E0,-3.7479512E-2,-1.5613492E-2,2.8421406E-2],"split_indices":[437,234,389,101,470,0,25,0,0,27,204,0,0,0,0,0,0],"split_type":[0,0,0,0,0,0,0,0,0,0,0,0,0,0,0,0,0],"sum_hessian":[2.4914093E2,1.6706862E2,8.207232E1,7.353476E1,9.353387E1,6.271324E1,1.9359076E1,4.9812355E0,6.855352E1,4.3174637E1,5.0359226E1,1.5975151E1,3.3839245E0,5.4811273E0,3.769351E1,9.282233E0,4.1076992E1],"tree_param":{"num_deleted":"0","num_feature":"500","num_nodes":"17","size_leaf_vector":"1"}},{"base_weights":[-3.1417284E-2,-2.1303052E-1,3.012986E-2,-5.774253E-1,4.1825452E-1,-0E0,-3.9624203E-2,-1.965987E-2,7.306276E-1,-3.1317417E-2,4.005651E-1,3.653444E-2,-0E0,-1.5300063E-2,7.890242E-1,1.9985475E-2,-1.7370882E-2,-0E0,3.2841276E-2],"categories":[],"categories_nodes":[],"categories_segments":[],"categories_sizes":[],"default_left":[0,0,0,0,0,0,0,0,0,0,0,0,0,0,0,0,0,0,0],"id":36,"left_children":[1,3,-1,5,7,9,-1,-1,11,-1,13,-1,15,-1,17,-1,-1,-1,-1],"loss_changes":[5.134487E1,5.9492058E1,0E0,5.269068E1,3.302562E1,4.6508827E1,0E0,0E0,1.3213726E1,0E0,2.8783884E1,0E0,2.3065105E1,0E0,6.534214E0,0E0,0E0,0E0,0E0],"parents":[2147483647,0,0,1,1,3,3,4,4,5,5,8,8,10,10,12,12,14,14],"right_children":[2,4,-1,6,8,10,-1,-1,12,-1,14,-1,16,-1,18,-1,-1,-1,-1],"split_conditions":[1.9059423E0,9.8129755E-1,3.012986E-2,-3.3445817E-1,-9.95437E-2,2.099358E-1,-3.9624203E-2,-1.965987E-2,-8.444737E-1,-3.1317417E-2,2.7051643E-1,3.653444E-2,-1.7432022E0,-1.5300063E-2,-2.526117E-2,1.9985475E-2,-1.7370882E-2,-0E0,3.2841276E-2],"split_indices":[167,344,0,329,439,331,0,0,257,0,123,0,329,0,420,0,0,0,0],"split_type":[0,0,0,0,0,0,0,0,0,0,0,0,0,0,0,0,0,0,0],"sum_hessian":[2.4094554E2,2.0823863E2,3.270691E1,1.3972943E2,6.850919E1,7.074153E1,6.898791E1,1.0469759E1,5.8039433E1,2.1290356E1,4.945117E1,3.812453E1,1.9914904E1,9.299053E0,4.015212E1,1.038514E1,9.529762E0,3.2125623E0,3.6939556E1],"tree_param":{"num_deleted":"0","num_feature":"500","num_nodes":"19","size_leaf_vector":"1"}},{"base_weights":[2.450991E-2,-3.3295233E-2,2.0944478E-1,-2.9108992E-2,3.418069E-1,-2.542995E-2,4.650703E-1,-1.9284321E-2,5.6590456E-1,6.538284E-1,-1.4261246E-2,-8.611346E-3,7.3860586E-1,-4.4506723E-3,8.2118064E-1,-0E0,9.1949E-1,-0E0,-1.2758334E-2,-0E0,3.3350524E-2],"categories":[],"categories_nodes":[],"categories_segments":[],"categories_sizes":[],"default_left":[0,0,0,0,0,0,0,0,0,0,0,0,0,0,0,0,0,0,0,0,0],"id":37,"left_children":[1,-1,3,-1,5,-1,7,-1,9,11,-1,-1,13,-1,15,17,19,-1,-1,-1,-1],"loss_changes":[6.0455883E1,0E0,4.1765507E1,0E0,3.6667995E1,0E0,2.6881573E1,0E0,2.1145927E1,1.739428E1,0E0,0E0,1.497776E1,0E0,1.1614632E1,6.922023E0,8.483368E0,0E0,0E0,0E0,0E0],"parents":[2147483647,0,0,2,2,4,4,6,6,8,8,9,9,12,12,14,14,15,15,16,16],"right_children":[2,-1,4,-1,6,-1,8,-1,10,12,-1,-1,14,-1,16,18,20,-1,-1,-1,-1],"split_conditions":[-5.0392073E-1,-3.3295233E-2,-9.089891E-1,-2.9108992E-2,-7.3315406E-1,-2.542995E-2,-9.5495766E-1,-1.9284321E-2,1.4913514E0,-1.0873551E0,-1.4261246E-2,-8.611346E-3,-1.084183E0,-4.4506723E-3,-7.3453903E-1,-2.2667224E0,-6.0855895E-1,-0E0,-1.2758334E-2,-0E0,3.3350524E-2],"split_indices":[10,0,281,0,295,0,327,0,105,211,0,0,308,0,218,7,363,0,0,0,0],"split_type":[0,0,0,0,0,0,0,0,0,0,0,0,0,0,0,0,0,0,0,0,0],"sum_hessian":[2.6088538E2,3.4001945E1,2.2688342E2,1.8603601E1,2.0827983E2,1.4799676E1,1.9348015E2,1.042557E1,1.8305458E2,1.7521765E2,7.836928E0,7.236596E0,1.6798106E2,6.5110364E0,1.6147003E2,1.3280052E1,1.4818997E2,5.263627E0,8.016425E0,4.2718754E0,1.4391809E2],"tree_param":{"num_deleted":"0","num_feature":"500","num_nodes":"21","size_leaf_vector":"1"}},{"base_weights":[-0E0,-3.272982E-2,1.5766393E-1,-0E0,3.4004416E-2,-6.350274E-1,3.861861E-1,-3.894597E-2,3.1535056E-1,8.340484E-1,-1.4925177E-1,-0E0,2.6531769E-2,-0E0,3.2888886E-2,5.6419957E-1,-3.3660553E-2,-0E0,2.9480848E-2],"categories":[],"categories_nodes":[],"categories_segments":[],"categories_sizes":[],"default_left":[0,0,0,0,0,0,0,0,0,0,0,0,0,0,0,0,0,0,0],"id":38,"left_children":[1,-1,3,5,-1,7,9,-1,11,13,15,-1,-1,-1,-1,17,-1,-1,-1],"loss_changes":[5.3154568E1,0E0,4.1892952E1,6.123169E1,0E0,4.8938663E1,3.889948E1,0E0,1.21731825E1,9.183685E0,5.052668E1,0E0,0E0,0E0,0E0,6.804178E0,0E0,0E0,0E0],"parents":[2147483647,0,0,2,2,3,3,5,5,6,6,8,8,9,9,10,10,15,15],"right_children":[2,-1,4,6,-1,8,10,-1,12,14,16,-1,-1,-1,-1,18,-1,-1,-1],"split_conditions":[-5.0392073E-1,-3.272982E-2,1.9059423E0,2.2082275E-1,3.4004416E-2,1.3481919E0,-5.674635E-1,-3.894597E-2,9.644629E-1,-1.8598993E-1,-1.2108203E0,-0E0,2.6531769E-2,-0E0,3.2888886E-2,8.069419E-1,-3.3660553E-2,-0E0,2.9480848E-2],"split_indices":[10,0,167,268,0,256,337,0,413,418,383,0,0,0,0,100,0,0,0],"split_type":[0,0,0,0,0,0,0,0,0,0,0,0,0,0,0,0,0,0,0],"sum_hessian":[2.529023E2,3.251797E1,2.2038432E2,1.851471E2,3.5237244E1,7.066695E1,1.1448014E2,5.1030758E1,1.9636187E1,7.013611E1,4.4344032E1,4.4197145E0,1.5216472E1,4.241621E0,6.5894485E1,1.9131962E1,2.521207E1,2.6496906E0,1.6482271E1],"tree_param":{"num_deleted":"0","num_feature":"500","num_nodes":"19","size_leaf_vector":"1"}},{"base_weights":[-0E0,-2.5224498E-1,6.4757764E-1,-8.371979E-1,1.1413057E-1,-0E0,9.186512E-1,-3.8801145E-2,1.0243982E-2,-2.7828034E-2,4.4666684E-1,-0E0,-1.7331973E-2,3.485816E-2,-0E0,-1.7685292E-2,6.987803E-1,-0E0,9.3567497E-1,-0E0,-1.1013779E-2,-0E0,3.5937637E-2],"categories":[],"categories_nodes":[],"categories_segments":[],"categories_sizes":[],"default_left":[0,0,0,0,0,0,0,0,0,0,0,0,0,0,0,0,0,0,0,0,0,0,0],"id":39,"left_children":[1,3,5,7,9,11,13,-1,-1,-1,15,-1,-1,-1,-1,-1,17,19,21,-1,-1,-1,-1],"loss_changes":[5.676926E1,5.0797775E1,1.9533958E1,3.5405334E1,4.40295E1,1.0511534E1,5.133873E0,0E0,0E0,0E0,2.8698904E1,0E0,0E0,0E0,0E0,0E0,1.3032158E1,5.8464975E0,5.2170563E0,0E0,0E0,0E0,0E0],"parents":[2147483647,0,0,1,1,2,2,3,3,4,4,5,5,6,6,10,10,16,16,17,17,18,18],"right_children":[2,4,6,8,10,12,14,-1,-1,-1,16,-1,-1,-1,-1,-1,18,20,22,-1,-1,-1,-1],"split_conditions":[1.0862468E0,1.4477582E-1,3.158306E-1,1.9570062E0,-1.3870059E-1,-2.2320333E0,1.1332797E0,-3.8801145E-2,1.0243982E-2,-2.7828034E-2,-2.6158112E-1,-0E0,-1.7331973E-2,3.485816E-2,-0E0,-1.7685292E-2,2.2686696E-1,1.4910862E-1,-7.7753305E-2,-0E0,-1.1013779E-2,-0E0,3.5937637E-2],"split_indices":[413,438,211,139,10,12,306,0,0,0,276,0,0,0,0,0,456,438,61,0,0,0,0],"split_type":[0,0,0,0,0,0,0,0,0,0,0,0,0,0,0,0,0,0,0,0,0,0,0],"sum_hessian":[2.4680533E2,1.7015648E2,7.664885E1,7.35908E1,9.656569E1,1.4456234E1,6.2192616E1,6.3166874E1,1.04239235E1,1.9261023E1,7.7304665E1,4.3317966E0,1.0124437E1,5.9319275E1,2.873339E0,9.678494E0,6.762617E1,1.3052242E1,5.457393E1,4.983806E0,8.068436E0,2.9502318E0,5.1623695E1],"tree_param":{"num_deleted":"0","num_feature":"500","num_nodes":"23","size_leaf_vector":"1"}},{"base_weights":[-0E0,-1.7412977E-1,9.2240083E-1,-3.7204575E-2,6.4205885E-2,3.707375E-2,-0E0,-3.1189384E-2,2.9557386E-1,-3.5514924E-1,6.14707E-1,-3.26392E-2,1.1796982E-2,-1.2058796E-2,8.023567E-1,3.1086778E-2,-0E0],"categories":[],"categories_nodes":[],"categories_segments":[],"categories_sizes":[],"default_left":[0,0,0,0,0,0,0,0,0,0,0,0,0,0,0,0,0],"id":40,"left_children":[1,3,5,-1,7,-1,-1,-1,9,11,13,-1,-1,-1,15,-1,-1],"loss_changes":[5.6405903E1,6.614816E1,5.886242E0,0E0,4.737899E1,0E0,0E0,0E0,3.7170643E1,3.1724005E1,2.4448544E1,0E0,0E0,0E0,9.148949E0,0E0,0E0],"parents":[2147483647,0,0,1,1,2,2,4,4,8,8,9,9,10,10,14,14],"right_children":[2,4,6,-1,8,-1,-1,-1,10,12,14,-1,-1,-1,16,-1,-1],"split_conditions":[1.8586335E0,-1.2317534E-1,-8.4892493E-1,-3.7204575E-2,-4.3479195E-1,3.707375E-2,-0E0,-3.1189384E-2,-8.458758E-2,9E0,-1.7114046E-1,-3.26392E-2,1.1796982E-2,-1.2058796E-2,5.141693E-1,3.1086778E-2,-0E0],"split_indices":[55,426,477,0,268,0,0,0,258,252,10,0,0,0,84,0,0],"split_type":[0,0,0,0,0,0,0,0,0,0,0,0,0,0,0,0,0],"sum_hessian":[2.4053143E2,2.0116939E2,3.9362053E1,4.778934E1,1.5338005E2,3.6479683E1,2.8823721E0,2.285289E1,1.3052716E2,3.5044056E1,9.54831E1,2.4619669E1,1.0424386E1,8.845449E0,8.663765E1,8.209538E1,4.542268E0],"tree_param":{"num_deleted":"0","num_feature":"500","num_nodes":"17","size_leaf_vector":"1"}},{"base_weights":[4.2593747E-2,-7.94805E-2,3.0782577E-2,-9.0095556E-1,1.4263132E-1,-3.6832727E-2,-0E0,-5.871852E-1,3.8809597E-1,-0E0,-3.2917302E-2,-2.5849992E-2,6.15574E-1,-9.574271E-3,7.562542E-1,9.2960536E-1,-0E0,-0E0,3.513473E-2,-1.5549851E-2,1.3936556E-2],"categories":[],"categories_nodes":[],"categories_segments":[],"categories_sizes":[],"default_left":[0,0,0,0,0,0,0,0,0,0,0,0,0,0,0,0,0,0,0,0,0],"id":41,"left_children":[1,3,-1,5,7,-1,-1,9,11,-1,-1,-1,13,-1,15,17,19,-1,-1,-1,-1],"loss_changes":[4.6993835E1,5.852188E1,0E0,1.0235821E1,3.8612186E1,0E0,0E0,1.5681128E1,4.4309517E1,0E0,0E0,0E0,1.9489048E1,0E0,1.1096794E1,8.444107E0,1.691687E1,0E0,0E0,0E0,0E0],"parents":[2147483647,0,0,1,1,3,3,4,4,7,7,8,8,12,12,14,14,15,15,16,16],"right_children":[2,4,-1,6,8,-1,-1,10,12,-1,-1,-1,14,-1,16,18,20,-1,-1,-1,-1],"split_conditions":[1.8586335E0,-1.7779833E-1,3.0782577E-2,2.5097716E0,-3.9492738E-1,-3.6832727E-2,-0E0,-2.3056056E0,-2.1480934E-1,-0E0,-3.2917302E-2,-2.5849992E-2,-6.367111E-1,-9.574271E-3,2.3606729E-2,-3.484065E-1,1.5219185E0,-0E0,3.513473E-2,-1.5549851E-2,1.3936556E-2],"split_indices":[55,268,0,267,370,0,0,462,498,0,0,0,276,0,437,218,389,0,0,0,0],"split_type":[0,0,0,0,0,0,0,0,0,0,0,0,0,0,0,0,0,0,0,0,0],"sum_hessian":[2.4975002E2,2.1117789E2,3.8572132E1,5.2293633E1,1.5888425E2,4.7865246E1,4.428388E0,3.2126755E1,1.2675749E2,5.3439198E0,2.6782835E1,1.534344E1,1.11414055E2,7.703868E0,1.0371019E2,8.511228E1,1.85979E1,3.9972568E0,8.111503E1,9.581494E0,9.016407E0],"tree_param":{"num_deleted":"0","num_feature":"500","num_nodes":"21","size_leaf_vector":"1"}},{"base_weights":[-0E0,-7.536871E-1,2.6311147E-1,-3.705877E-2,1.1256024E-2,4.4457623E-1,-2.7598279E-2,-1.8007023E-2,5.7624424E-1,-7.945895E-3,6.851477E-1,-0E0,7.73813E-1,-0E0,8.498125E-1,3.1028053E-2,-0E0],"categories":[],"categories_nodes":[],"categories_segments":[],"categories_sizes":[],"default_left":[0,0,0,0,0,0,0,0,0,0,0,0,0,0,0,0,0],"id":42,"left_children":[1,3,5,-1,-1,7,-1,-1,9,-1,11,-1,13,-1,15,-1,-1],"loss_changes":[6.3361954E1,3.4223076E1,4.239367E1,0E0,0E0,2.5868568E1,0E0,0E0,1.627042E1,0E0,9.326111E0,0E0,7.0212555E0,0E0,5.4896164E0,0E0,0E0],"parents":[2147483647,0,0,1,1,2,2,5,5,8,8,10,10,12,12,14,14],"right_children":[2,4,6,-1,-1,8,-1,-1,10,-1,12,-1,14,-1,16,-1,-1],"split_conditions":[-1.008675E-1,1.8734386E0,8.273198E-1,-3.705877E-2,1.1256024E-2,-8.1577945E-1,-2.7598279E-2,-1.8007023E-2,-6.975513E-1,-7.945895E-3,-9.102887E-1,-0E0,-5.0392073E-1,-0E0,1.1790719E0,3.1028053E-2,-0E0],"split_indices":[482,81,88,0,0,18,0,0,158,0,76,0,10,0,164,0,0],"split_type":[0,0,0,0,0,0,0,0,0,0,0,0,0,0,0,0,0],"sum_hessian":[2.2748718E2,6.419244E1,1.6329474E2,5.4208714E1,9.98372E0,1.4586542E2,1.7429323E1,1.0409451E1,1.3545596E2,7.699965E0,1.27756004E2,5.5218863E0,1.22234116E2,4.5609407E0,1.1767318E2,1.1411815E2,3.5550263E0],"tree_param":{"num_deleted":"0","num_feature":"500","num_nodes":"17","size_leaf_vector":"1"}},{"base_weights":[-0E0,-3.32536E-2,1.6757311E-1,-3.0001108E-2,3.3211458E-1,-2.328369E-2,4.7507095E-1,-0E0,7.6850355E-1,-3.0777212E-2,5.155496E-1,8.8212925E-1,-0E0,2.8631188E-2,-0E0,-0E0,3.271706E-2,-0E0,-1.0399041E-2],"categories":[],"categories_nodes":[],"categories_segments":[],"categories_sizes":[],"default_left":[0,0,0,0,0,0,0,0,0,0,0,0,0,0,0,0,0,0,0],"id":43,"left_children":[1,-1,3,-1,5,-1,7,9,11,-1,13,15,-1,-1,17,-1,-1,-1,-1],"loss_changes":[5.2275314E1,0E0,4.569334E1,0E0,3.501759E1,0E0,2.1782574E1,5.2128983E1,1.043235E1,0E0,1.18146E1,5.9403534E0,0E0,0E0,5.483227E0,0E0,0E0,0E0,0E0],"parents":[2147483647,0,0,2,2,4,4,6,6,7,7,8,8,10,10,11,11,14,14],"right_children":[2,-1,4,-1,6,-1,8,10,12,-1,14,16,-1,-1,18,-1,-1,-1,-1],"split_conditions":[-5.717198E-1,-3.32536E-2,-7.487132E-1,-3.0001108E-2,-5.0392073E-1,-2.328369E-2,5.627875E-1,6.1134666E-1,1.4913514E0,-3.0777212E-2,-5.4755914E-1,-6.485193E-1,-0E0,2.8631188E-2,-2.2667224E0,-0E0,3.271706E-2,-0E0,-1.0399041E-2],"split_indices":[268,0,320,0,10,0,459,167,105,0,340,482,0,0,7,0,0,0,0],"split_type":[0,0,0,0,0,0,0,0,0,0,0,0,0,0,0,0,0,0,0],"sum_hessian":[2.323829E2,2.9975409E1,2.024075E2,2.1035181E1,1.8137231E2,1.5698736E1,1.6567358E2,6.693187E1,9.8741714E1,2.2232063E1,4.469981E1,9.368245E1,5.0592575E0,3.1535915E1,1.3163894E1,3.5078804E0,9.0174576E1,5.0096645E0,8.154229E0],"tree_param":{"num_deleted":"0","num_feature":"500","num_nodes":"19","size_leaf_vector":"1"}},{"base_weights":[3.539295E-2,-3.1097535E-2,2.1022667E-1,-4.7237027E-1,4.1200027E-1,-3.340296E-2,1.2778967E-2,-4.2982423E-1,6.078894E-1,-2.8909609E-2,-0E0,7.151056E-1,-1.0115092E-2,-2.2650252E-3,8.112154E-1,-0E0,3.0060053E-2],"categories":[],"categories_nodes":[],"categories_segments":[],"categories_sizes":[],"default_left":[0,0,0,0,0,0,0,0,0,0,0,0,0,0,0,0,0],"id":44,"left_children":[1,-1,3,5,7,-1,-1,9,11,-1,-1,13,-1,-1,15,-1,-1],"loss_changes":[5.1031933E1,0E0,3.7077168E1,3.1830711E1,3.5859283E1,0E0,0E0,1.312586E1,1.8896622E1,0E0,0E0,1.3066536E1,0E0,0E0,8.589325E0,0E0,0E0],"parents":[2147483647,0,0,2,2,3,3,4,4,7,7,8,8,11,11,14,14],"right_children":[2,-1,4,6,8,-1,-1,10,12,-1,-1,14,-1,-1,16,-1,-1],"split_conditions":[-5.0392073E-1,-3.1097535E-2,-3.659216E-1,2.4987693E0,-3.2412162E-1,-3.340296E-2,1.2778967E-2,2.3830862E0,8.0540365E-1,-2.8909609E-2,-0E0,-8.3640337E-1,-1.0115092E-2,-2.2650252E-3,-9.8090875E-1,-0E0,3.0060053E-2],"split_indices":[10,0,386,417,229,0,0,415,436,0,0,179,0,0,430,0,0],"split_type":[0,0,0,0,0,0,0,0,0,0,0,0,0,0,0,0,0],"sum_hessian":[2.3949167E2,3.0288227E1,2.0920345E2,3.906043E1,1.7014302E2,2.994543E1,9.114998E0,2.4728716E1,1.454143E2,1.9836075E1,4.892641E0,1.3760109E2,7.8132167E0,6.328006E0,1.3127309E2,4.547426E0,1.26725655E2],"tree_param":{"num_deleted":"0","num_feature":"500","num_nodes":"17","size_leaf_vector":"1"}},{"base_weights":[-0E0,-3.137068E-2,1.4212275E-1,-4.8270583E-1,3.6974198E-1,1.0470024E-2,-3.318723E-2,4.9301943E-1,-1.7990619E-2,-1.2105449E-2,6.065074E-1,-0E0,7.6836014E-1,-2.3173554E-2,2.1038024E-2,-0E0,8.8061905E-1,-0E0,3.243451E-2],"categories":[],"categories_nodes":[],"categories_segments":[],"categories_sizes":[],"default_left":[0,0,0,0,0,0,0,0,0,0,0,0,0,0,0,0,0,0,0],"id":45,"left_children":[1,-1,3,5,7,-1,-1,9,-1,-1,11,13,15,-1,-1,-1,17,-1,-1],"loss_changes":[4.7316177E1,0E0,3.579516E1,3.0176397E1,2.3294052E1,0E0,0E0,1.8597206E1,0E0,0E0,1.0963009E1,3.1304508E1,6.6334534E0,0E0,0E0,0E0,4.726898E0,0E0,0E0],"parents":[2147483647,0,0,2,2,3,3,4,4,7,7,10,10,11,11,12,12,16,16],"right_children":[2,-1,4,6,8,-1,-1,10,-1,-1,12,14,16,-1,-1,-1,18,-1,-1],"split_conditions":[-4.689226E-1,-3.137068E-2,-8.808445E-2,-1.7565162E0,7.3983705E-1,1.0470024E-2,-3.318723E-2,-7.3080415E-1,-1.7990619E-2,-1.2105449E-2,-1.3289337E-1,1.5588853E0,-4.6990323E-1,-2.3173554E-2,2.1038024E-2,-0E0,-5.0496036E-1,-0E0,3.243451E-2],"split_indices":[10,0,158,312,219,0,0,338,0,0,418,67,41,0,0,0,62,0,0],"split_type":[0,0,0,0,0,0,0,0,0,0,0,0,0,0,0,0,0,0,0],"sum_hessian":[2.2037677E2,3.153391E1,1.8884285E2,4.142942E1,1.4741344E2,1.0050743E1,3.1378677E1,1.3716177E2,1.0251666E1,8.191084E0,1.2897069E2,2.6369318E1,1.02601364E2,1.301706E1,1.3352259E1,1.0560102E1,9.204127E1,3.1644764E0,8.8876785E1],"tree_param":{"num_deleted":"0","num_feature":"500","num_nodes":"19","size_leaf_vector":"1"}},{"base_weights":[-2.0156415E-2,-3.3297902E-1,4.8323384E-1,-3.6359206E-2,1.9171199E-2,6.982298E-1,-1.14817405E-2,4.8172256E-1,-3.0706555E-2,3.0823713E-2,-0E0,7.4490887E-1,-1.20092435E-2,-0E0,3.0225955E-2],"categories":[],"categories_nodes":[],"categories_segments":[],"categories_sizes":[],"default_left":[0,0,0,0,0,0,0,0,0,0,0,0,0,0,0],"id":46,"left_children":[1,3,5,-1,7,9,-1,11,-1,-1,-1,13,-1,-1,-1],"loss_changes":[4.4675102E1,5.4200897E1,2.042293E1,0E0,5.576516E1,1.1185841E1,0E0,2.306942E1,0E0,0E0,0E0,7.0659866E0,0E0,0E0,0E0],"parents":[2147483647,0,0,1,1,2,2,4,4,5,5,7,7,11,11],"right_children":[2,4,6,-1,8,10,-1,12,-1,-1,-1,14,-1,-1,-1],"split_conditions":[9.4797546E-1,2.099358E-1,5.881799E-1,-3.6359206E-2,7.75879E-3,3E0,-1.14817405E-2,-9.6600585E-2,-3.0706555E-2,3.0823713E-2,-0E0,-4.0002443E-2,-1.20092435E-2,-0E0,3.0225955E-2],"split_indices":[52,331,68,0,78,132,0,347,0,0,0,368,0,0,0],"split_type":[0,0,0,0,0,0,0,0,0,0,0,0,0,0,0],"sum_hessian":[2.1447462E2,1.4166928E2,7.280536E1,5.2625324E1,8.904395E1,6.510936E1,7.695998E0,6.4915344E1,2.4128605E1,5.4252888E1,1.0856469E1,5.635307E1,8.562279E0,4.0034122E0,5.2349655E1],"tree_param":{"num_deleted":"0","num_feature":"500","num_nodes":"15","size_leaf_vector":"1"}},{"base_weights":[-0E0,-2.977192E-2,1.2302904E-1,2.6717493E-1,-2.844069E-2,-2.2987107E-2,3.981099E-1,-1.8018514E-2,5.16008E-1,6.184359E-1,-1.1267076E-2,-3.4140778E-4,7.039975E-1,7.796049E-1,-0E0,-0E0,2.8505811E-2],"categories":[],"categories_nodes":[],"categories_segments":[],"categories_sizes":[],"default_left":[0,0,0,0,0,0,0,0,0,0,0,0,0,0,0,0,0],"id":47,"left_children":[1,-1,3,5,-1,-1,7,-1,9,11,-1,-1,13,15,-1,-1,-1],"loss_changes":[3.9596508E1,0E0,3.664631E1,2.994707E1,0E0,0E0,2.4472782E1,0E0,1.7980785E1,9.692291E0,0E0,0E0,7.97876E0,5.5993423E0,0E0,0E0,0E0],"parents":[2147483647,0,0,2,2,3,3,6,6,8,8,9,9,12,12,13,13],"right_children":[2,-1,4,6,-1,-1,8,-1,10,12,-1,-1,14,16,-1,-1,-1],"split_conditions":[-5.0392073E-1,-2.977192E-2,8.0540365E-1,-9.089891E-1,-2.844069E-2,-2.2987107E-2,-8.2698625E-1,-1.8018514E-2,1.0217518E0,-7.429358E-1,-1.1267076E-2,-3.4140778E-4,1.0666245E0,-1.0905514E0,-0E0,-0E0,2.8505811E-2],"split_indices":[10,0,436,281,0,0,179,0,485,295,0,0,499,182,0,0,0],"split_type":[0,0,0,0,0,0,0,0,0,0,0,0,0,0,0,0,0],"sum_hessian":[2.2106876E2,2.7496578E1,1.9357217E2,1.7530466E2,1.8267515E1,1.4186815E1,1.6111784E2,1.0803503E1,1.5031435E2,1.4219115E2,8.123203E0,6.299302E0,1.3589185E2,1.309135E2,4.9783497E0,3.8463204E0,1.2706717E2],"tree_param":{"num_deleted":"0","num_feature":"500","num_nodes":"17","size_leaf_vector":"1"}},{"base_weights":[-0E0,2.6106825E-1,-4.7285226E-1,5.211093E-1,-3.2072195E-1,-7.8372896E-1,1.6912486E-2,2.9748848E-2,-0E0,-3.0935187E-2,1.1267853E-2,2.3677886E-2,-3.6747526E-2,-2.7378295E-2,6.105435E-1,1.3631748E-2,-0E0,2.8590865E-2,-0E0],"categories":[],"categories_nodes":[],"categories_segments":[],"categories_sizes":[],"default_left":[0,0,0,0,0,0,0,0,0,0,0,0,0,0,0,0,0,0,0],"id":48,"left_children":[1,3,5,7,9,11,-1,-1,13,-1,-1,15,-1,-1,17,-1,-1,-1,-1],"loss_changes":[3.8912403E1,2.8891453E1,3.5927734E1,1.806411E1,2.8873127E1,2.3850239E1,0E0,0E0,4.3458393E1,0E0,0E0,7.089696E0,0E0,0E0,6.1870613E0,0E0,0E0,0E0,0E0],"parents":[2147483647,0,0,1,1,2,2,3,3,4,4,5,5,8,8,11,11,14,14],"right_children":[2,4,6,8,10,12,-1,-1,14,-1,-1,16,-1,-1,18,-1,-1,-1,-1],"split_conditions":[3E0,2.1359071E-1,1.9119661E0,-8.264217E-1,1.620274E0,-1.6896733E0,1.6912486E-2,2.9748848E-2,2.2499081E-1,-3.0935187E-2,1.1267853E-2,-1.5586061E0,-3.6747526E-2,-2.7378295E-2,-3.2526928E-1,1.3631748E-2,-0E0,2.8590865E-2,-0E0],"split_indices":[132,227,352,234,260,78,0,0,348,0,0,313,0,0,471,0,0,0,0],"split_type":[0,0,0,0,0,0,0,0,0,0,0,0,0,0,0,0,0,0,0],"sum_hessian":[2.1766533E2,1.3517372E2,8.24916E1,1.0252719E2,3.264653E1,6.848601E1,1.4005592E1,5.745545E1,4.5071747E1,2.3259087E1,9.3874445E0,1.1745933E1,5.6740074E1,1.7330833E1,2.7740911E1,9.012742E0,2.7331903E0,2.4671934E1,3.0689783E0],"tree_param":{"num_deleted":"0","num_feature":"500","num_nodes":"19","size_leaf_vector":"1"}},{"base_weights":[-0E0,-1.4654739E-1,8.263159E-1,-3.5178483E-2,7.274317E-2,3.3926964E-2,-0E0,-2.8109489E-2,2.9016423E-1,-2.0647E-2,4.6408522E-1,-1.2441231E-2,6.198699E-1,7.918035E-1,-0E0,3.0280542E-2,-0E0,-1.6441844E-2,1.2541086E-2],"categories":[],"categories_nodes":[],"categories_segments":[],"categories_sizes":[],"default_left":[0,0,0,0,0,0,0,0,0,0,0,0,0,0,0,0,0,0,0],"id":49,"left_children":[1,3,5,-1,7,-1,-1,-1,9,-1,11,-1,13,15,17,-1,-1,-1,-1],"loss_changes":[4.3150085E1,5.6456978E1,5.053482E0,0E0,3.848752E1,0E0,0E0,0E0,2.7173977E1,0E0,2.0153988E1,0E0,9.579781E0,6.133438E0,1.6744514E1,0E0,0E0,0E0,0E0],"parents":[2147483647,0,0,1,1,2,2,4,4,8,8,10,10,12,12,13,13,14,14],"right_children":[2,4,6,-1,8,-1,-1,-1,10,-1,12,-1,14,16,18,-1,-1,-1,-1],"split_conditions":[1.8586335E0,-1.2317534E-1,-8.4892493E-1,-3.5178483E-2,-4.3479195E-1,3.3926964E-2,-0E0,-2.8109489E-2,-6.132835E-1,-2.0647E-2,-7.1618694E-1,-1.2441231E-2,4.8472673E-2,5.141693E-1,2.3935037E0,3.0280542E-2,-0E0,-1.6441844E-2,1.2541086E-2],"split_indices":[55,426,477,0,268,0,0,0,101,0,359,0,40,84,255,0,0,0,0],"split_type":[0,0,0,0,0,0,0,0,0,0,0,0,0,0,0,0,0,0,0],"sum_hessian":[2.1619003E2,1.8052264E2,3.5667393E1,4.248057E1,1.3804207E2,3.286411E1,2.8032823E0,1.9935349E1,1.1810673E2,1.1983353E1,1.06123375E2,8.976305E0,9.7147064E1,7.819375E1,1.895332E1,7.448233E1,3.7114162E0,1.0180729E1,8.772591E0],"tree_param":{"num_deleted":"0","num_feature":"500","num_nodes":"19","size_leaf_vector":"1"}},{"base_weights":[-0E0,-1.7416155E-1,2.7756792E-2,-8.153537E-1,1.6059114E-1,-3.6715634E-2,7.3101693E-3,-2.4972565E-2,4.0530372E-1,-0E0,7.378825E-1,-2.5307927E-2,4.093639E-1,3.0275574E-2,-0E0,2.3530817E-2,-0E0],"categories":[],"categories_nodes":[],"categories_segments":[],"categories_sizes":[],"default_left":[0,0,0,0,0,0,0,0,0,0,0,0,0,0,0,0,0],"id":50,"left_children":[1,3,-1,5,7,-1,-1,-1,9,11,13,-1,15,-1,-1,-1,-1],"loss_changes":[4.398225E1,5.325416E1,0E0,2.6616287E1,3.4649117E1,0E0,0E0,0E0,1.695934E1,2.9905209E1,7.5412827E0,0E0,6.1128893E0,0E0,0E0,0E0,0E0],"parents":[2147483647,0,0,1,1,3,3,4,4,8,8,9,9,10,10,12,12],"right_children":[2,4,-1,6,8,-1,-1,-1,10,12,14,-1,16,-1,-1,-1,-1],"split_conditions":[1.8586335E0,2.2082275E-1,2.7756792E-2,2.7705686E0,-1.3941826E-1,-3.6715634E-2,7.3101693E-3,-2.4972565E-2,4.8434022E-1,9.962364E-1,2.1359071E-1,-2.5307927E-2,-4.8010147E-1,3.0275574E-2,-0E0,2.3530817E-2,-0E0],"split_indices":[55,268,0,58,426,0,0,0,413,7,227,0,71,0,0,0,0],"split_type":[0,0,0,0,0,0,0,0,0,0,0,0,0,0,0,0,0],"sum_hessian":[2.0852335E2,1.7365335E2,3.4870007E1,6.7420586E1,1.06232765E2,5.9337807E1,8.082774E0,1.6030981E1,9.020178E1,3.5498432E1,5.470335E1,1.5844929E1,1.9653502E1,5.068655E1,4.016799E0,1.6870426E1,2.7830763E0],"tree_param":{"num_deleted":"0","num_feature":"500","num_nodes":"17","size_leaf_vector":"1"}},{"base_weights":[-0E0,-2.765454E-1,4.6055213E-1,-0E0,-3.3622768E-2,-9.79978E-3,6.376041E-1,-2.7413161E-2,2.9585513E-1,7.79321E-1,-0E0,-1.279909E-2,5.4263955E-1,3.0301271E-2,-0E0,7.448957E-1,-0E0,3.0203497E-2,-0E0],"categories":[],"categories_nodes":[],"categories_segments":[],"categories_sizes":[],"default_left":[0,0,0,0,0,0,0,0,0,0,0,0,0,0,0,0,0,0,0],"id":51,"left_children":[1,3,5,7,-1,-1,9,-1,11,13,-1,-1,15,-1,-1,17,-1,-1,-1],"loss_changes":[3.872578E1,3.5727425E1,1.7626705E1,3.6015575E1,0E0,0E0,9.6063385E0,0E0,1.9373154E1,6.7113647E0,0E0,0E0,1.0306982E1,0E0,0E0,5.909439E0,0E0,0E0,0E0],"parents":[2147483647,0,0,1,1,2,2,3,3,6,6,8,8,9,9,12,12,15,15],"right_children":[2,4,6,8,-1,-1,10,-1,12,14,-1,-1,16,-1,-1,18,-1,-1,-1],"split_conditions":[6.9551504E-1,1.19660094E-1,-2.2402398E-1,-1.1790357E-1,-3.3622768E-2,-9.79978E-3,1.4913514E0,-2.7413161E-2,-4.6990323E-1,5.141693E-1,-0E0,-1.279909E-2,3.490444E-1,3.0301271E-2,-0E0,5.3656477E-1,-0E0,3.0203497E-2,-0E0],"split_indices":[52,277,182,418,0,0,105,0,41,84,0,0,420,0,0,145,0,0,0],"split_type":[0,0,0,0,0,0,0,0,0,0,0,0,0,0,0,0,0,0,0],"sum_hessian":[2.0723495E2,1.2190707E2,8.5327896E1,8.527085E1,3.663621E1,8.023582E0,7.730431E1,2.0376493E1,6.489436E1,7.203411E1,5.2702003E0,9.064079E0,5.583028E1,6.8154076E1,3.8800356E0,5.011227E1,5.718012E0,4.6640846E1,3.4714243E0],"tree_param":{"num_deleted":"0","num_feature":"500","num_nodes":"19","size_leaf_vector":"1"}},{"base_weights":[-0E0,-7.536539E-1,1.5177244E-1,-0E0,-3.2856487E-2,-5.260685E-1,3.484807E-1,-2.9257514E-2,-0E0,-2.2483457E-2,5.207939E-1,6.353376E-1,-7.1958867E-3,-0E0,7.350396E-1,-0E0,8.1739235E-1,-0E0,3.00902E-2],"categories":[],"categories_nodes":[],"categories_segments":[],"categories_sizes":[],"default_left":[0,0,0,0,0,0,0,0,0,0,0,0,0,0,0,0,0,0,0],"id":52,"left_children":[1,3,5,-1,-1,7,9,-1,-1,-1,11,13,-1,-1,15,-1,17,-1,-1],"loss_changes":[3.9756668E1,8.310951E0,3.0395153E1,0E0,0E0,1.1017216E1,3.2744396E1,0E0,0E0,0E0,1.4552231E1,9.259933E0,0E0,0E0,6.663513E0,0E0,4.778366E0,0E0,0E0],"parents":[2147483647,0,0,1,1,2,2,5,5,6,6,10,10,11,11,14,14,16,16],"right_children":[2,4,6,-1,-1,8,10,-1,-1,-1,12,14,-1,-1,16,-1,18,-1,-1],"split_conditions":[-3.659216E-1,-2.4132514E0,-3.2412162E-1,-0E0,-3.2856487E-2,2.1841705E0,-5.5295455E-1,-2.9257514E-2,-0E0,-2.2483457E-2,8.0540365E-1,-8.895111E-1,-7.1958867E-3,-0E0,-9.082046E-1,-0E0,-5.3280663E-1,-0E0,3.00902E-2],"split_indices":[386,371,229,0,0,48,123,0,0,0,436,18,0,0,281,0,10,0,0],"split_type":[0,0,0,0,0,0,0,0,0,0,0,0,0,0,0,0,0,0,0],"sum_hessian":[2.0267525E2,3.8907E1,1.6376825E2,4.061189E0,3.484581E1,2.8067858E1,1.357004E2,2.3576094E1,4.491764E0,1.325885E1,1.2244154E2,1.1494501E2,7.496533E0,5.741911E0,1.09203094E2,4.3772283E0,1.0482587E2,3.6856458E0,1.0114022E2],"tree_param":{"num_deleted":"0","num_feature":"500","num_nodes":"19","size_leaf_vector":"1"}},{"base_weights":[-0E0,-3.283568E-1,3.9678526E-1,-3.296111E-2,-0E0,-1.0862071E-2,5.740304E-1,3.0651155E-1,-2.8194802E-2,7.151824E-1,-0E0,-9.587497E-3,5.810027E-1,2.8262664E-2,-0E0,-0E0,2.5830954E-2],"categories":[],"categories_nodes":[],"categories_segments":[],"categories_sizes":[],"default_left":[0,0,0,0,0,0,0,0,0,0,0,0,0,0,0,0,0],"id":53,"left_children":[1,3,5,-1,7,-1,9,11,-1,13,-1,-1,15,-1,-1,-1,-1],"loss_changes":[3.6566303E1,3.210121E1,1.7395699E1,0E0,3.5452087E1,0E0,8.995552E0,1.7251055E1,0E0,6.8416862E0,0E0,0E0,7.062332E0,0E0,0E0,0E0,0E0],"parents":[2147483647,0,0,1,1,2,2,4,4,6,6,7,7,9,9,12,12],"right_children":[2,4,6,-1,8,-1,10,12,-1,14,-1,-1,16,-1,-1,-1,-1],"split_conditions":[6.9551504E-1,4.9624495E-2,-2.2402398E-1,-3.296111E-2,9.261239E-2,-1.0862071E-2,1.4913514E0,-9.484156E-2,-2.8194802E-2,6.0519016E-1,-0E0,-9.587497E-3,-2.6963425E-1,2.8262664E-2,-0E0,-0E0,2.5830954E-2],"split_indices":[52,368,182,0,177,0,105,123,0,425,0,0,229,0,0,0,0],"split_type":[0,0,0,0,0,0,0,0,0,0,0,0,0,0,0,0,0],"sum_hessian":[1.9673244E2,1.1139621E2,8.533623E1,3.8704533E1,7.269168E1,8.332117E0,7.700411E1,5.4129898E1,1.856178E1,7.156826E1,5.435854E0,8.318819E0,4.581108E1,6.749819E1,4.0700645E0,4.3115873E0,4.1499493E1],"tree_param":{"num_deleted":"0","num_feature":"500","num_nodes":"17","size_leaf_vector":"1"}},{"base_weights":[-0E0,-7.477524E-1,1.8934101E-1,-3.2542214E-2,-0E0,3.17857E-1,-2.2353841E-2,-1.4356736E-2,4.2483398E-1,-8.780643E-3,5.23027E-1,6.1692524E-1,-3.8689515E-3,-0E0,7.05453E-1,-0E0,2.611158E-2],"categories":[],"categories_nodes":[],"categories_segments":[],"categories_sizes":[],"default_left":[0,0,0,0,0,0,0,0,0,0,0,0,0,0,0,0,0],"id":54,"left_children":[1,3,5,-1,-1,7,-1,-1,9,-1,11,13,-1,-1,15,-1,-1],"loss_changes":[4.1894367E1,7.955387E0,2.6256966E1,0E0,0E0,1.7849005E1,0E0,0E0,1.3832092E1,0E0,1.1087555E1,8.687172E0,0E0,0E0,5.140465E0,0E0,0E0],"parents":[2147483647,0,0,1,1,2,2,5,5,8,8,10,10,11,11,14,14],"right_children":[2,4,6,-1,-1,8,-1,-1,10,-1,12,14,-1,-1,16,-1,-1],"split_conditions":[-3.659216E-1,2.7794578E0,7.3983705E-1,-3.2542214E-2,-0E0,-7.3315406E-1,-2.2353841E-2,-1.4356736E-2,-8.2698625E-1,-8.780643E-3,1.0666245E0,-9.4713247E-1,-3.8689515E-3,-0E0,-9.4580895E-1,-0E0,2.611158E-2],"split_indices":[386,36,219,0,0,295,0,0,179,0,499,359,0,0,281,0,0],"split_type":[0,0,0,0,0,0,0,0,0,0,0,0,0,0,0,0,0],"sum_hessian":[2.0545567E2,3.852174E1,1.6693393E2,3.4539288E1,3.9824538E0,1.5284502E2,1.4088918E1,1.02259E1,1.4261911E2,8.097331E0,1.3452177E2,1.27734215E2,6.7875614E0,5.8140793E0,1.2192014E2,4.0198145E0,1.1790032E2],"tree_param":{"num_deleted":"0","num_feature":"500","num_nodes":"17","size_leaf_vector":"1"}},{"base_weights":[-0E0,-5.4673404E-1,1.940602E-1,-3.3965327E-2,1.1311284E-2,-2.3370504E-2,3.4958163E-1,-2.878659E-2,6.548136E-1,-2.8880361E-2,3.134077E-1,-0E0,2.8008904E-2,2.165377E-2,-0E0],"categories":[],"categories_nodes":[],"categories_segments":[],"categories_sizes":[],"default_left":[0,0,0,0,0,0,0,0,0,0,0,0,0,0,0],"id":55,"left_children":[1,3,5,-1,-1,-1,7,9,11,-1,13,-1,-1,-1,-1],"loss_changes":[3.301496E1,3.4848335E1,2.8943024E1,0E0,0E0,0E0,2.2420235E1,3.477E1,1.1198566E1,0E0,9.084996E0,0E0,0E0,0E0,0E0],"parents":[2147483647,0,0,1,1,2,2,6,6,7,7,8,8,10,10],"right_children":[2,4,6,-1,-1,-1,8,10,12,-1,14,-1,-1,-1,-1],"split_conditions":[-1.6036795E-1,1.591734E0,-8.1577945E-1,-3.3965327E-2,1.1311284E-2,-2.3370504E-2,1.6194887E-1,4.7280434E-1,-3.1055605E-1,-2.8880361E-2,-5.404174E-1,-0E0,2.8008904E-2,2.165377E-2,-0E0],"split_indices":[482,81,18,0,0,0,456,66,258,0,341,0,0,0,0],"split_type":[0,0,0,0,0,0,0,0,0,0,0,0,0,0,0],"sum_hessian":[1.999249E2,5.4066418E1,1.4585849E2,4.13291E1,1.2737314E1,1.4435141E1,1.3142334E2,4.7464523E1,8.395882E1,2.0489796E1,2.697473E1,1.1616974E1,7.234184E1,2.2294405E1,4.680324E0],"tree_param":{"num_deleted":"0","num_feature":"500","num_nodes":"15","size_leaf_vector":"1"}},{"base_weights":[-5.82867E-2,-6.0408956E-1,1.7991558E-1,-3.4356397E-2,1.0128951E-1,-1.19617045E-1,6.2964755E-1,-0E0,1.8202433E-2,-7.425922E-1,3.6096722E-1,-0E0,2.8062355E-2,-3.3362843E-2,-0E0,2.4110531E-2,-0E0],"categories":[],"categories_nodes":[],"categories_segments":[],"categories_sizes":[],"default_left":[0,0,0,0,0,0,0,0,0,0,0,0,0,0,0,0,0],"id":56,"left_children":[1,3,5,-1,7,9,11,-1,-1,13,15,-1,-1,-1,-1,-1,-1],"loss_changes":[3.72977E1,2.89124E1,2.6797337E1,0E0,9.378393E0,3.4758083E1,7.9730873E0,0E0,0E0,8.208729E0,1.0142374E1,0E0,0E0,0E0,0E0,0E0,0E0],"parents":[2147483647,0,0,1,1,2,2,4,4,5,5,6,6,9,9,10,10],"right_children":[2,4,6,-1,8,10,12,-1,-1,14,16,-1,-1,-1,-1,-1,-1],"split_conditions":[2.9833212E-1,1.4477988E0,7.659057E-1,-3.4356397E-2,5.8763283E-1,8.293728E-1,2.0830427E-1,-0E0,1.8202433E-2,2.5009084E0,-5.6262213E-1,-0E0,2.8062355E-2,-3.3362843E-2,-0E0,2.4110531E-2,-0E0],"split_indices":[459,338,197,0,461,464,66,0,0,85,197,0,0,0,0,0,0],"split_type":[0,0,0,0,0,0,0,0,0,0,0,0,0,0,0,0,0],"sum_hessian":[1.7969748E2,6.437737E1,1.1532011E2,4.7534107E1,1.6843267E1,5.8984898E1,5.633521E1,4.294167E0,1.2549101E1,3.263536E1,2.6349537E1,9.703583E0,4.6631626E1,2.897329E1,3.6620715E0,2.1570364E1,4.779173E0],"tree_param":{"num_deleted":"0","num_feature":"500","num_nodes":"17","size_leaf_vector":"1"}},{"base_weights":[-0E0,-7.0265394E-1,1.8264753E-1,-3.1956986E-2,-0E0,-4.9727625E-1,3.719917E-1,-2.798327E-2,-0E0,4.9070662E-1,-1.3528003E-2,6.431414E-1,-0E0,-0E0,7.4660516E-1,-1.9178415E-2,1.0616535E-3,-0E0,2.8115349E-2],"categories":[],"categories_nodes":[],"categories_segments":[],"categories_sizes":[],"default_left":[0,0,0,0,0,0,0,0,0,0,0,0,0,0,0,0,0,0,0],"id":57,"left_children":[1,3,5,-1,-1,7,9,-1,-1,11,-1,13,15,-1,17,-1,-1,-1,-1],"loss_changes":[3.7840664E1,9.76926E0,2.8861603E1,0E0,0E0,9.80216E0,1.8123844E1,0E0,0E0,1.1974491E1,0E0,8.711224E0,1.2885055E1,0E0,5.996643E0,0E0,0E0,0E0,0E0],"parents":[2147483647,0,0,1,1,2,2,5,5,6,6,9,9,11,11,12,12,14,14],"right_children":[2,4,6,-1,-1,8,10,-1,-1,12,-1,14,16,-1,18,-1,-1,-1,-1],"split_conditions":[-3.659216E-1,2.3554862E0,-3.2412162E-1,-3.1956986E-2,-0E0,2.1841705E0,8.0540365E-1,-2.798327E-2,-0E0,4.3683833E-1,-1.3528003E-2,-7.7831924E-1,1.02202E0,-0E0,-8.2698625E-1,-1.9178415E-2,1.0616535E-3,-0E0,2.8115349E-2],"split_indices":[386,438,229,0,0,48,436,0,0,485,0,228,148,0,179,0,0,0,0],"split_type":[0,0,0,0,0,0,0,0,0,0,0,0,0,0,0,0,0,0,0],"sum_hessian":[1.9901942E2,3.8284267E1,1.6073517E2,3.402736E1,4.2569103E0,2.6190336E1,1.3454483E2,2.198347E1,4.206866E0,1.2521906E2,9.325763E0,1.0529036E2,1.9928707E1,5.531723E0,9.975864E1,1.1528712E1,8.399996E0,4.109466E0,9.564917E1],"tree_param":{"num_deleted":"0","num_feature":"500","num_nodes":"19","size_leaf_vector":"1"}},{"base_weights":[-0E0,-1.2410966E-1,2.5944348E-2,-3.3231698E-2,6.6826E-2,-4.2270523E-1,4.0852845E-1,1.3474699E-2,-3.238467E-2,2.5404451E-2,-0E0,3.1816456E-1,-2.1742921E-2,-0E0,2.100898E-2],"categories":[],"categories_nodes":[],"categories_segments":[],"categories_sizes":[],"default_left":[0,0,0,0,0,0,0,0,0,0,0,0,0,0,0],"id":58,"left_children":[1,3,-1,-1,5,7,9,-1,-1,-1,11,13,-1,-1,-1],"loss_changes":[3.4656647E1,4.7015015E1,0E0,0E0,3.223358E1,3.4080826E1,1.4589487E1,0E0,0E0,0E0,2.258152E1,7.3598804E0,0E0,0E0,0E0],"parents":[2147483647,0,0,1,1,4,4,5,5,6,6,10,10,11,11],"right_children":[2,4,-1,-1,6,8,10,-1,-1,-1,12,14,-1,-1,-1],"split_conditions":[1.8586335E0,-1.2317534E-1,2.5944348E-2,-3.3231698E-2,1.9113965E-1,-1.7620289E0,-5.864712E-1,1.3474699E-2,-3.238467E-2,2.5404451E-2,-4.742884E-1,4.0160105E-1,-2.1742921E-2,-0E0,2.100898E-2],"split_indices":[55,426,0,0,415,309,373,0,0,0,109,409,0,0,0],"split_type":[0,0,0,0,0,0,0,0,0,0,0,0,0,0,0],"sum_hessian":[1.9481296E2,1.6338176E2,3.1431206E1,3.7050232E1,1.2633152E2,4.270754E1,8.3623985E1,1.1181151E1,3.1526386E1,4.6887768E1,3.6736214E1,2.3488005E1,1.324821E1,3.9425879E0,1.9545416E1],"tree_param":{"num_deleted":"0","num_feature":"500","num_nodes":"15","size_leaf_vector":"1"}},{"base_weights":[-0E0,-1.4289957E-1,2.5036743E-2,-3.262778E-2,3.0565009E-2,-2.4222955E-2,2.2384617E-1,-1.4093849E-2,3.707996E-1,-1.696166E-2,5.286873E-1,-1.4663431E-2,-0E0,2.291855E-2,-0E0],"categories":[],"categories_nodes":[],"categories_segments":[],"categories_sizes":[],"default_left":[0,0,0,0,0,0,0,0,0,0,0,0,0,0,0],"id":59,"left_children":[1,3,-1,-1,5,-1,7,-1,9,11,13,-1,-1,-1,-1],"loss_changes":[3.3759346E1,4.120764E1,0E0,0E0,2.7282164E1,0E0,1.6329708E1,0E0,9.520426E0,8.080415E0,7.3950996E0,0E0,0E0,0E0,0E0],"parents":[2147483647,0,0,1,1,4,4,6,6,8,8,9,9,10,10],"right_children":[2,4,-1,-1,6,-1,8,-1,10,12,14,-1,-1,-1,-1],"split_conditions":[1.8586335E0,-1.2317534E-1,2.5036743E-2,-3.262778E-2,-4.3479195E-1,-2.4222955E-2,-6.675561E-1,-1.4093849E-2,-5.0590587E-1,1.8212575E0,4.4971016E-1,-1.4663431E-2,-0E0,2.291855E-2,-0E0],"split_indices":[55,426,0,0,268,0,218,0,204,418,436,0,0,0,0],"split_type":[0,0,0,0,0,0,0,0,0,0,0,0,0,0,0],"sum_hessian":[1.8612E2,1.5496594E2,3.1154058E1,3.4728664E1,1.20237274E2,1.657071E1,1.03666565E2,9.610209E0,9.405636E1,1.316322E1,8.0893135E1,9.7372265E0,3.4259937E0,6.927353E1,1.1619609E1],"tree_param":{"num_deleted":"0","num_feature":"500","num_nodes":"15","size_leaf_vector":"1"}},{"base_weights":[-6.0964134E-2,-2.941405E-1,2.5291955E-2,-7.9810184E-1,3.1265467E-1,-3.6228646E-2,5.637716E-3,5.454351E-1,-6.2123323E-3,-0E0,2.4282034E-2],"categories":[],"categories_nodes":[],"categories_segments":[],"categories_sizes":[],"default_left":[0,0,0,0,0,0,0,0,0,0,0],"id":60,"left_children":[1,3,-1,5,7,-1,-1,9,-1,-1,-1],"loss_changes":[4.290891E1,5.6297302E1,0E0,2.923693E1,1.3216113E1,0E0,0E0,6.807705E0,0E0,0E0,0E0],"parents":[2147483647,0,0,1,1,3,3,4,4,7,7],"right_children":[2,4,-1,6,8,-1,-1,10,-1,-1,-1],"split_conditions":[1.8586335E0,1.0400907E0,2.5291955E-2,1.7135028E0,1.056713E0,-3.6228646E-2,5.637716E-3,-3.9492738E-1,-6.2123323E-3,-0E0,2.4282034E-2],"split_indices":[55,426,0,352,239,0,0,370,0,0,0],"split_type":[0,0,0,0,0,0,0,0,0,0,0],"sum_hessian":[1.687672E2,1.3834804E2,3.0419165E1,8.248141E1,5.5866623E1,7.0507996E1,1.1973413E1,4.85462E1,7.3204217E0,4.2875147E0,4.4258686E1],"tree_param":{"num_deleted":"0","num_feature":"500","num_nodes":"11","size_leaf_vector":"1"}},{"base_weights":[-0E0,-4.7863898E-1,2.7117482E-1,-3.3671517E-2,1.133565E-1,-3.2038334E-1,5.745277E-1,-0E0,1.9937733E-2,-2.7398292E-2,-0E0,-0E0,2.485777E-2],"categories":[],"categories_nodes":[],"categories_segments":[],"categories_sizes":[],"default_left":[0,0,0,0,0,0,0,0,0,0,0,0,0],"id":61,"left_children":[1,3,5,-1,7,9,11,-1,-1,-1,-1,-1,-1],"loss_changes":[3.50819E1,3.395982E1,2.8201698E1,0E0,1.126287E1,1.5126852E1,8.085995E0,0E0,0E0,0E0,0E0,0E0,0E0],"parents":[2147483647,0,0,1,1,2,2,4,4,5,5,6,6],"right_children":[2,4,6,-1,8,10,12,-1,-1,-1,-1,-1,-1],"split_conditions":[2.6435292E-1,1.0672067E0,-3.907318E-2,-3.3671517E-2,1.2307249E0,1.957347E0,-2.3702288E-1,-0E0,1.9937733E-2,-2.7398292E-2,-0E0,-0E0,2.485777E-2],"split_indices":[184,35,228,0,464,487,179,0,0,0,0,0,0],"split_type":[0,0,0,0,0,0,0,0,0,0,0,0,0],"sum_hessian":[1.7395079E2,6.937142E1,1.0457938E2,4.396667E1,2.5404749E1,2.6881565E1,7.769781E1,1.0540437E1,1.4864311E1,1.9582003E1,7.2995634E0,1.1579662E1,6.611815E1],